-196,114964
-228,475722
-189,459248
-228,496617
-179,264992
-219,015269
-234,226900
-204,828627
-266,578049
-197,621914
-218,145465
-238,446897
-9213933794969276734023468433681120276121541343711072315290855459329631624867267781077765228881821230541307904,000000
-188,384088
-245,662121
-268,878046
-213,353501
-285,621225
-218,823408
-244,954953
-226,506673
-189,623380
-254,930245
-259,573709
-238,853402
-221,391172
-209,063493
-192,922265
-193,539007
-287,439264
-247,349087
-242,046177
-224,406385
-222,927436
-243,570981
-219,184305
-252,193177
-265,697518
-226,946878
-276,551705
-204,189747
-282,150687
-38135899556858785599782801568617113319812345005112964997796266807475245877210115797632640044413017731077505024,000000
-17693455146689524882945263215829308316998565967986683288637852020283172288734343755463301536651589577017917440,000000
-223,341226
-179,670371
-202,508348
-223,710293
-270,492218
-239,896142
-273,921149
-248,825544
-184,027475
-218,761674
-262,695997
-234,577461
-220,924341
-198,356519
-274,759781
-219,133468
-224,645134
-243,817677
-167,226740
-236,834234
-186,408488
-274,515984
-241,155159
-192,104552
-203,640846
-292,494160
-178,487559
-184,902925
-242,440872
-184,842614
-245,205896
-233,906215
-248,864930
-209,282266
-195,360037
-203,949888
-211,632966
-184,253150
-211,011098
-267,853678
-213,111521
-262,557896
-282,325395
-240,657998
-246,584598
-200,801455
-193,858095
-214,364502
-278,661514
-208,638875
-256,855902
-270,833166
-232,384925
-208,131778
-235,909176
-277,746299
-124,533935
-221,104614
-234,046279
-236,510721
-202,192310
-238,877279
-246,626868
-213,410408
-194,424850
-256,842077
-268,066262
-263,786953
-229,350506
-292,677102
-242,203876
-245,401685
-252,381022
-235,915219
-228,584064
-270,419414
-216,079698
-209,392113
-224,907058
-258,388442
-235,904098
-227,413456
-239,710922
-207,791417
-223,401613
-225,003426
-201,268245
-310,057390
-223,554184
-253,931774
-280,145670
-222,845885
-234,856900
-191,173728
-286,671354
-165,762263
-198,741629
-242,523300
-188,302709
-236,390934
-238,218457
-177,994820
-276,280599
-215,817232
-250,914151
-256,996753
-201,671785
-249,321754
-196,480517
-231,874723
-229,441143
-186,278171
-298,098333
-212,361795
-218,416137
-180,762532
-192,034030
-197,952667
-174,822399
-224,529571
-240,042058
-258,439948
-269,855852
-250,182777
-269,114367
-236,230381
-195,297725
-317,637896
-248,277610
-189,520322
-245,787390
-311,574142
-215,121126
-283,571684
-251,461834
-227,533534
-216,546518
-199,808614
-243,054440
-237,913098
-235,106153
-178,612509
-240,794907
-234,213061
-232,271188
-228,580380
-263,323640
-200,567476
-246,922875
-245,865469
-274,000100
-230,131953
-249,185299
-236,121085
-283,307497
-243,418759
-141,606002
-228,198462
-16,475121
-215,494948
-219,051070
-300,873114
-224,254568
-181,737657
-207,219804
-238,644178
6,740629
-179,882912
-263,523368
-256,042004
-211,485332
-287,491138
-219,051022
-230,160026
-257,882366
-254,606364
-173,942868
-205,060370
-265,186266
-241,726423
-252,808551
-71,598198
-241,334032
-221,231158
-217,089762
-211,340058
-253,214274
-211,824774
-269,900898
-268,031163
-166,010659
-232,383725
-225,133240
-229,766530
-236,414259
-203,323285
-309,872363
-220,987210
-214,503472
-261,625598
-134,163612
-249,256288
-233,218086
-264,413521
-212,810487
-209,399648
-192,844853
-218,593111
-256,203757
-257,671515
-220,365343
-212,498203
-53,668660
-764,950306
-254,428739
-213,094925
-238,487949
-177,113009
-200,146775
-246,177802
-200,142245
-279,717536
-233,049040
-211,564679
-246,551225
-181,309374
-225,350646
-206,564841
-237,655503
-155,747346
-254,554460
-216,325583
-221,388120
-234,432440
-211,201795
-271,212171
-275,966955
-275,341922
-193,881483
-240,530814
-202,133152
-163,977179
-171,010846
-214,191226
-218,268684
-261,919552
-265,830936
-265,790290
-233,836617
-168,411385
-178,895796
-233,549201
-254,238903
-288,834914
-182,664038
-217,656309
-184,846129
-234,488657
-178,687777
-191,373198
-294,800084
-254,616687
-161,202925
-235,855679
-208,511895
-252,469582
-236,988564
-173,430467
-288,636061
-277,443944
-148,564142
-216,677365
-233,623071
-228,848339
-162,696900
-221,993497
-240,161186
-204,868547
-255,207571
-263,844161
-179,968299
-239,128730
-192,061074
-198,114270
-203,432426
-258,909191
-178,035928
-235,211200
-177,048700
-226,401252
-298,730732
-285,035090
-203,194252
-299,931048
-276,295005
-198,205952
-209,988235
-240,853962
-230,732326
-257,899400
-172,732792
-270,196157
-300,560077
-262,206014
-156,422977
-210,803044
-274,774652
-193,290633
-221,779049
-172,985469
-208,617261
-185,693702
-199,751080
-260,407175
-218,257334
-141,389940
-270,951585
-254,547827
-212,771468
-255,566954
-226,487532
-198,471993
-216,097851
-207,102354
-207,018340
-215,319096
-1924,518638
-239,372261
-205,249110
-256,739395
-201,396491
-219,165823
-210,722408
-249,985701
-267,833924
-238,388674
-245,425632
-214,583050
-198,646540
-246,033589
-226,933537
-246,478012
-266,042505
-148,863198
-178,556876
-195,798472
-232,393838
-196,200223
-274,611767
-256,433251
-213,218915
-210,756112
-245,804154
-213,558721
-242,707598
-210,470706
-279,561317
-263,146343
-295,565436
-185,378928
-206,340251
-198,412383
-274,769904
-24,266605
-260,405923
-230,055606
-269,648788
-208,516431
-194,256284
-228,231601
-253,176989
-208,891538
-241,507405
-225,142347
-246,200869
-235,547677
-240,996878
-241,784542
-209,853791
-211,787905
-241,415175
-218,653456
-235,920199
-280,478165
-252,648536
-178,647625
-199,167867
-245,005382
-222,886089
-211,802534
-196,596975
-232,016275
-252,947107
-229,276935
-222,061226
-288,340164
-241,013525
-189,550212
-211,057734
-191,186932
-236,557532
-228,442657
-240,989334
-204,971349
-243,075222
-262,618169
-290,710441
-239,437385
-225,905828
-262,336911
1,862257
-292,385288
-203,516138
-258,899584
-252,686122
-257,123987
-200,212092
-235,793913
-215,184460
-210,693374
-291,082148
-237,605620
-215,027006
-187,915570
-225,139927
-214,445396
-1732,278874
-219,941582
-203,673300
-230,749661
-219,230220
-180,293865
-216,694444
-213,817683
-226,110366
-221,858722
-274,979861
-237,332353
-200,412248
-221,952616
-210,411228
-156,973244
-244,183389
-216,978133
-278,342172
-263,461327
-245,482095
-221,829193
-209,509526
-273,396974
-214,442535
-281,713299
-239,118603
-256,784517
-226,806286
-253,255691
-244,717453
-211,260209
-225,837656
-258,367573
-258,852978
-249,681954
-178,519510
-180,078780
-274,572733
-201,185874
-298,126152
-219,132291
-13,893222
-26,533302
2,278147
-19,633040
-21,742644
-10,796698
-46,246256
-21,834529
-21,674669
-7,197895
-25,800603
-20,913791
-53,064728
-25,850527
-23,850831
-21,521072
-10,874128
-18,375372
-7,853014
-9,259045
-27,584987
-16,545673
