0.551443
0.933420
0.494407
0.552568
0.939129
0.799646
0.814139
0.594497
0.657201
0.995300
0.935852
0.324541
0.874309
0.589157
0.637771
0.759324
0.775421
0.794910
0.262785
0.604379
0.470564
0.166955
0.795490
0.865086
0.873021
0.664414
0.412483
0.611981
0.596899
0.645601
0.538557
0.148342
0.579022
0.032963
0.700910
0.518151
0.832609
0.515049
0.112648
0.489810
0.510349
0.048500
0.814351
0.384658
0.637656
0.452122
0.143982
0.413078
0.247033
0.406767
0.017457
0.717597
0.573721
0.812947
0.582682
0.446743
0.477361
0.995165
0.058723
0.074260
0.640766
0.597280
0.222602
0.219788
0.630243
0.923513
0.737939
0.462852
0.438562
0.850586
0.952662
0.948911
0.899086
0.767014
0.333569
0.536742
0.219136
0.477551
0.949820
0.466169
0.884318
0.967277
0.183765
0.458039
0.780224
0.766448
0.904782
0.257585
0.761612
0.963505
0.331846
0.402379
0.560785
0.554448
0.622167
0.191028
0.477961
0.360105
0.653880
0.916523
0.210692
0.606542
0.865434
0.109778
0.373556
0.199003
0.646520
0.592692
0.676554
0.596341
0.058860
0.560872
0.563617
0.242626
0.018911
0.343841
0.009073
0.923692
0.601427
0.770686
0.887197
0.933273
0.173065
0.447982
0.487721
0.795231
0.639009
0.965682
0.155336
0.292889
0.882204
0.366028
0.899431
0.747638
0.475806
0.272987
0.946640
0.122326
0.865679
0.623194
0.718666
0.924540
0.184066
0.282284
0.167165
0.202977
0.626125
0.176239
0.126669
0.227552
0.946925
0.013866
0.160824
0.119989
0.461848
0.648545
0.915221
0.100857
0.614227
0.070557
0.393746
0.496431
0.436585
0.293177
0.244069
0.912391
0.566164
0.190709
0.034716
0.431844
0.813904
0.753383
0.356383
0.997970
0.035666
0.523548
0.200947
0.661792
0.699787
0.327616
0.889343
0.646712
0.341482
0.050168
0.766701
0.803330
0.698713
0.681922
0.904187
0.312940
0.752479
0.297933
0.809371
0.189064
0.591111
0.053439
0.101454
0.157275
0.244149
0.136171
0.589119
0.058052
0.889553
0.945502
0.056022
0.925220
0.469050
0.256969
0.587011
0.168837
0.584585
0.476355
0.815549
0.926068
0.526523
0.582250
0.729398
0.225236
0.264172
0.633585
0.538175
0.016651
0.931518
0.347546
0.205714
0.522629
0.400985
0.307168
0.679904
0.645134
0.443339
0.269022
0.703186
0.332892
0.214524
0.759208
0.258112
0.683574
0.016177
0.845123
0.852411
0.600763
0.321478
0.667960
0.526830
0.848000
0.250210
0.256228
0.073236
0.514382
0.889813
0.611411
0.531033
0.821331
0.958957
0.736747
0.343959
0.359942
0.043915
0.023863
0.005076
0.487254
0.292886
0.708262
0.820146
0.507410
0.467471
0.078258
0.190984
0.483648
0.923381
0.043395
0.084411
0.244858
0.711355
0.611241
0.092858
0.961565
0.867469
0.166094
0.475947
0.757282
0.777505
0.006980
0.578613
0.736462
0.743727
0.922572
0.096404
0.787642
0.946435
0.101480
0.274897
0.239321
0.809743
0.095043
0.746730
0.277214
0.173301
0.937714
0.760862
0.096681
0.981109
0.845273
0.341540
0.692463
0.456514
0.434398
0.654029
0.323983
0.600492
0.129976
0.081265
0.377997
0.136956
0.659878
0.114459
0.880683
0.582450
0.210863
0.668326
0.528885
0.312343
0.943222
0.768206
0.122086
0.038265
0.514936
0.399300
0.211565
0.452650
0.160162
0.308247
0.433758
0.005435
0.649787
0.126222
0.461949
0.084185
0.780251
0.785932
0.684677
0.910227
0.867197
0.062674
0.047183
0.527075
0.177133
0.927866
0.109525
0.387996
0.596191
0.638409
0.700340
0.539413
0.406615
0.822426
0.577678
0.921551
0.221726
0.789244
0.374201
0.381888
0.097491
0.807959
0.387323
0.747277
0.934181
0.849272
0.831462
0.714432
0.635204
0.516139
0.624658
0.502401
0.578813
0.671841
0.029476
0.755945
0.599707
0.139001
0.143942
0.195898
0.777410
0.844281
0.735311
0.184025
0.666707
0.312990
0.105576
0.888433
0.102233
0.479777
0.270321
0.199724
0.287736
0.657643
0.947001
0.221918
0.506915
0.778463
0.936349
0.142119
0.294601
0.561007
0.644520
0.873414
0.232848
0.673996
0.629359
0.832555
0.812997
0.773301
0.028453
0.590407
0.617582
0.763764
0.774432
0.284289
0.076753
0.880009
0.172722
0.178987
0.359786
0.443043
0.378710
0.647522
0.100686
0.325711
0.869440
0.607600
0.104174
0.805789
0.749719
0.398775
0.366796
0.394239
0.272189
0.599644
0.068235
0.901549
0.432199
0.881232
0.674850
0.460652
0.471639
0.292432
0.224415
0.246071
0.576721
0.301169
0.126080
0.749443
0.480156
0.485866
0.192486
0.858866
0.133388
0.293171
0.184577
0.002828
0.900772
0.288752
0.808617
0.650491
0.687527
0.175413
0.044729
0.959716
0.775058
0.112964
0.861265
0.207257
0.994196
0.536115
0.667908
0.465835
0.828546
0.892324
0.711906
0.405267
0.193493
0.837986
0.154711
0.673648
0.323852
0.347196
0.532514
0.457240
0.640368
0.717092
0.460067
0.541140
0.005843
0.268684
0.191630
0.693370
0.444097
0.236360
0.653087
0.219155
0.349324
0.514352
0.426412
0.343520
0.050466
0.094320
0.809355
0.879013
0.986644
0.521261
0.284280
0.180136
0.359247
0.438990
0.853785
0.683098
0.786187
0.386299
0.140338
0.426555
0.103390
0.600405
0.967694
0.109233
0.869090
0.159324
0.802604
0.313187
0.395684
0.455690
0.532342
0.745008
0.970042
0.958753
0.088528
0.020508
0.053073
0.897883
0.899521
0.039717
0.419144
0.183801
0.219853
0.778391
0.622791
0.073638
0.461489
0.408978
0.459937
0.601827
0.835533
0.563327
0.202232
0.803227
0.672560
0.071322
0.962551
0.475164
0.384509
0.358235
0.930854
0.916851
0.103244
0.900896
0.875604
0.191772
0.921405
0.928678
0.089655
0.820926
0.968395
0.508799
0.004727
0.188248
0.287189
0.627518
0.261886
0.748678
0.036496
0.721822
0.350505
0.872028
0.285149
0.552738
0.675255
0.957709
0.624060
0.637806
0.432873
0.008569
0.996042
0.363727
0.925420
0.099285
0.264624
0.801024
0.291057
0.186029
0.729702
0.380712
0.006954
0.698096
0.889511
0.011681
0.886344
0.176700
0.639199
0.148230
0.925379
0.675694
0.870053
0.275884
0.547723
0.155202
0.828622
0.222978
0.112911
0.452681
0.860784
0.545784
0.461250
0.856826
0.909512
0.386669
0.956111
0.174136
0.187693
0.247168
0.360164
0.917395
0.627880
0.367118
0.615491
0.517391
0.378799
0.501835
0.694091
0.017998
0.650066
0.619470
0.693692
0.520118
0.895354
0.241415
0.675320
0.723975
0.464393
0.788231
0.176656
0.325177
0.334016
0.637906
0.182003
0.243528
0.024575
0.138114
0.417663
0.212269
0.385282
0.777828
0.129663
0.013161
0.144946
0.745154
0.530552
0.523745
0.246990
0.224643
0.541743
0.897055
0.844113
0.235435
0.417174
0.739467
0.476850
0.092494
0.463442
0.941243
0.880725
0.640098
0.266420
0.214741
0.278005
0.448423
0.458269
0.302580
0.586537
0.875932
0.514849
0.971818
0.653760
0.644512
0.984980
0.798706
0.389667
0.515532
0.322451
0.636656
0.740175
0.864194
0.533712
0.584288
0.099629
0.950885
0.323755
0.576479
0.043379
0.787197
0.517722
0.924104
0.427295
0.784142
0.138845
0.705300
0.232565
0.597114
0.007880
0.819102
0.473045
0.522729
0.790920
0.126805
0.167241
0.775899
0.925511
0.556908
0.291431
0.247962
0.193564
0.031606
0.112157
0.727276
0.615894
0.211786
0.678161
0.939649
0.788265
0.721540
0.726846
0.305987
0.645644
0.154141
0.090130
0.784489
0.859441
0.322695
0.381603
0.867321
0.141796
0.854648
0.390050
0.932716
0.981453
0.557291
0.708616
0.906964
0.114199
0.000047
0.154927
0.307763
0.031653
0.267083
0.035039
0.647548
0.478869
0.713200
0.587197
0.267134
0.434740
0.314043
0.573122
0.080384
0.468185
0.663252
0.864873
0.327626
0.985946
0.246476
0.194948
0.127743
0.101124
0.584998
0.060459
0.082577
0.142289
0.769074
0.989541
0.256489
0.769121
0.144468
0.564252
0.800775
0.411551
0.599291
0.448322
0.890420
0.312491
0.035519
0.157555
0.747231
0.349562
0.730677
0.827615
0.817747
0.393928
0.692488
0.145373
0.379874
0.938963
0.340321
0.507617
0.040087
0.925318
0.568076
0.122664
0.067608
0.337150
0.112205
0.324096
0.106272
0.256673
0.888348
0.907046
0.668224
0.487639
0.355369
0.558645
0.800129
0.390888
0.716199
0.547360
0.740450
0.446876
0.374975
0.558198
0.840804
0.067462
0.703571
0.220679
0.006426
0.043891
0.728296
0.046513
0.969210
0.296372
0.169177
0.036818
0.633522
0.281382
0.360914
0.739794
0.538055
0.249262
0.646840
0.206280
0.736901
0.002209
0.764925
0.537030
0.393097
0.481124
0.084390
0.133548
0.928000
0.459365
0.691745
0.768804
0.526827
0.395316
0.989483
0.533253
0.439207
0.717778
0.579765
0.408417
0.014150
0.748942
0.445235
0.647672
0.030324
0.806149
0.387466
0.568379
0.055411
0.034307
0.774659
0.792311
0.036516
0.539584
0.329342
0.429613
0.020708
0.413732
0.563161
0.948708
0.873097
0.254906
0.717512
0.399924
0.650222
0.706995
0.933176
0.089430
0.424774
0.512941
0.497847
0.438924
0.261883
0.943081
0.086596
0.292207
0.749230
0.474063
0.860587
0.804641
0.508369
0.635246
0.596952
0.544885
0.174830
0.926294
0.974499
0.195538
0.340026
0.537660
0.144246
0.213122
0.792566
0.861759
0.613046
0.442789
0.568754
0.546222
0.532218
0.993528
0.059163
0.030065
0.432452
0.321047
0.973147
0.519048
0.613254
0.722377
0.993110
0.473841
0.527017
0.501480
0.109087
0.123969
0.046365
0.283917
0.050263
0.020864
0.479455
0.390289
0.558524
0.623701
0.603411
0.351090
0.485460
0.216457
0.793879
0.054214
0.762679
0.326097
0.047742
0.821842
0.356162
0.480193
0.142889
0.329309
0.999241
0.756143
0.051685
0.992352
0.229984
0.578702
0.493831
0.339071
0.702672
0.540197
0.622988
0.752935
0.561060
0.102443
0.143224
0.119584
0.726144
0.746635
0.470674
0.211604
0.963092
0.264553
0.265818
0.725771
0.590649
0.313560
0.547613
0.946811
0.793753
0.690502
0.276120
0.792995
0.446645
0.327805
0.785346
0.676628
0.906508
0.279178
0.015699
0.609179
0.819374
0.638687
0.362115
0.380434
0.741130
0.505339
0.500019
0.467274
0.251974
0.970693
0.678878
0.215066
0.071373
0.750372
0.864416
0.809524
0.161502
0.236474
0.735539
-0.113990
0.178827
-0.086554
0.664626
0.404537
0.303357
0.490158
0.207421
0.214593
0.916387
0.225272
0.637060
0.454660
0.956611
-0.022820
0.006802
0.571840
0.698476
0.461126
-0.088167
-0.193605
0.496663
0.502833
0.074794
0.644971
0.708322
0.087857
0.501215
-0.200355
0.576050
0.128238
0.064346
0.759604
0.281886
0.903733
0.374335
0.835232
0.499649
0.673133
0.019599
0.362304
-0.165986
-0.105475
-0.041209
-0.113682
0.269239
0.177715
0.645618
-0.174051
0.647058
0.735618
-0.034669
0.410259
0.645987
0.109944
0.110640
0.453072
0.435216
0.890693
0.396787
-0.177546
0.381762
0.537630
0.677562
0.594487
0.501044
0.202889
0.347046
-0.010492
0.040586
0.439158
0.566288
0.176891
0.748928
0.680450
0.152003
0.002440
0.233216
-0.052905
0.051401
0.057279
0.903394
0.005781
0.657522
0.464459
0.427702
0.750223
0.100860
0.862918
0.814000
0.719260
0.849430
0.301477
0.237582
0.674544
0.072419
-0.031542
0.116384
0.527198
0.256583
0.261390
0.522312
0.718500
0.459903
0.249277
0.739935
0.655484
0.579965
-0.120136
0.762849
0.448659
0.043404
0.792469
0.823835
0.673418
0.358518
0.286937
0.691207
0.561807
-0.035398
0.696528
0.332322
0.023438
-0.101887
0.847953
0.825751
0.231973
0.648154
0.092177
0.108481
-0.194981
0.375112
0.552262
-0.021224
0.154620
0.245633
0.874224
0.114065
0.769107
0.694374
-0.093366
0.464772
0.118640
0.903829
0.361950
-0.231347
0.190027
0.614337
0.651401
-0.169210
0.751926
0.581488
0.422352
0.753444
0.807219
0.142083
0.951932
-0.188332
0.147400
0.067016
0.203578
0.282705
0.637736
-0.127364
0.406684
0.097952
0.244587
0.350419
0.377627
0.178584
0.289813
0.460245
0.630552
0.494115
0.551478
0.081225
0.558222
-0.327442
-0.111947
0.427922
-0.165815
0.804949
-0.118292
0.529899
0.705524
0.841040
0.920349
0.770671
0.810401
0.220771
0.009630
-0.157509
0.463818
-0.124156
0.120243
0.217300
0.202112
0.214266
0.510966
0.728638
0.615755
-0.013455
0.339899
0.527295
0.532856
0.835000
0.806961
0.200819
0.882025
0.726139
0.732020
-0.103402
0.682856
0.833672
0.558314
0.420210
0.643065
0.615809
0.483251
0.529767
0.894504
0.687473
0.478432
0.677710
0.489590
0.679450
0.829664
0.044275
0.226955
0.379680
0.683031
-0.087370
0.438033
0.034221
0.269286
0.127159
-0.125197
0.312894
0.735723
0.045111
0.207417
0.289245
0.086586
0.005726
0.416706
0.853212
0.659264
-0.056894
0.609529
0.259429
0.680830
0.527706
0.200577
0.461706
0.204943
0.032286
0.196325
-0.050259
0.021927
0.272634
0.665733
-0.062680
0.453619
0.378752
0.201550
0.054062
0.638900
0.268153
0.544699
0.374553
0.236957
0.584956
0.011771
0.548634
0.837329
0.546144
0.220720
0.645741
0.690731
0.128770
0.257939
0.209237
0.664126
0.324091
0.831023
-0.063251
0.480570
0.055980
0.190591
0.943610
0.661328
0.037560
-0.235405
0.227874
0.426333
0.253467
0.299993
0.135267
0.523877
-0.139385
-0.016171
0.175122
0.730112
0.037196
0.731858
0.629099
0.493785
0.401325
0.518436
0.121569
0.520362
0.697543
0.755733
0.225982
0.326804
0.569235
0.397271
-0.080860
0.664309
0.727294
0.854656
0.678868
0.941311
-0.249614
-0.051392
0.365695
0.285128
0.566128
0.869947
-0.157111
0.436250
0.768054
-0.002180
0.233939
-0.183688
-0.022715
0.090522
0.663977
0.341124
0.624240
0.067049
0.055721
0.272997
0.763523
0.360729
0.552247
0.651482
-0.002717
0.697019
0.452112
0.777643
0.616172
0.289372
0.807545
0.707894
0.394724
0.070516
-0.072246
0.998142
0.193595
-0.019945
0.326364
-0.134410
0.243069
0.971047
0.066915
0.462825
-0.117601
-0.085290
0.017249
0.733180
0.048715
0.018758
0.040445
0.069041
0.603666
-0.106452
0.811049
0.647895
0.723268
0.498910
0.531467
0.338507
0.837391
0.231184
0.332005
0.162822
0.700610
0.463378
0.138384
-0.264290
0.382991
0.964248
0.079686
-0.041401
0.935296
0.214748
0.337322
-0.184043
0.446393
0.455753
0.824378
0.471206
0.740327
-0.064715
0.520537
0.349261
0.116970
0.594883
0.149064
-0.193140
0.195980
0.848912
0.554499
0.119380
0.231498
-0.079228
0.409430
-0.163437
0.357232
0.920795
-0.033120
-0.066610
0.846207
0.204022
0.024762
0.691267
0.575557
0.672035
0.709962
0.000396
0.208851
0.606689
0.376255
0.129809
0.923229
0.456682
0.614465
0.157357
0.173597
0.693527
-0.075551
0.343490
0.814794
0.751693
0.431296
-0.185114
0.699231
0.159089
0.010404
0.100870
0.145155
0.104943
0.356088
0.157282
0.297051
0.486064
-0.091283
0.038193
0.181934
-0.036237
0.227692
0.737615
0.826898
-0.132668
-0.210027
0.780823
0.344769
0.632440
-0.214497
0.533798
0.599851
0.097167
0.237846
0.325434
0.142369
0.736426
0.468076
0.042490
0.061693
0.813974
0.386260
0.119100
0.063151
-0.069174
0.245386
0.436645
0.648419
0.560018
0.779135
0.060493
0.578987
0.080315
0.935737
0.523989
-0.067132
-0.111472
0.177860
0.487446
0.815992
0.515713
0.264476
0.270723
0.701926
0.615450
-0.074753
-0.350884
0.467093
0.588773
-0.133183
0.298067
0.447318
0.445838
0.885412
0.534939
0.467011
0.355720
0.203949
0.067237
0.105602
-0.048129
0.480457
0.766015
-0.111518
0.190104
1.486874
-0.158799
0.438850
-0.173060
-0.085198
0.032575
0.256814
0.283567
0.698823
-0.368260
-0.027533
-0.112434
0.218316
0.728388
0.665530
0.161214
0.394194
0.181648
-0.204464
0.562891
-0.017726
0.699722
0.236818
0.592035
-0.083733
0.630994
0.467241
0.653294
0.382482
0.736683
-0.072739
-0.205114
1.197733
-0.274448
0.156358
0.123538
0.138569
0.947899
0.783692
0.169616
-0.012466
0.022981
0.369883
0.343408
0.052341
0.443288
-0.339940
0.407883
0.101487
-0.086978
0.020474
-0.018503
-0.133253
-0.400740
-0.326671
0.083637
0.550555
0.498521
0.138809
0.222128
0.751502
0.545106
0.645643
-0.019510
0.739135
-0.174462
0.128745
0.294370
0.870695
-0.094343
1.956077
-0.210745
1.122216
0.179889
0.293588
0.768639
-0.039570
0.468700
0.228482
0.068498
0.337170
-0.281287
0.557586
0.553222
-0.183598
0.430321
0.393785
0.698692
0.476400
0.107037
0.201395
0.226583
0.140324
-0.338211
0.638557
-0.081624
-0.096882
-0.311066
0.355822
0.061990
0.431963
0.312755
-0.041485
0.918237
-0.036607
0.622788
0.607562
0.146325
-0.200048
0.270243
0.319430
1.198832
0.101915
-0.121131
0.518085
0.237733
-0.135815
-0.444705
0.173133
0.454969
0.182434
0.780298
-0.052526
0.709637
-0.132802
0.812056
0.502410
-0.023373
-0.065937
0.538777
0.386385
0.473639
-0.264983
0.321758
0.652785
-0.008728
0.118312
0.526680
0.366651
0.477492
-0.183214
0.227253
0.463238
0.319020
0.221509
0.263328
0.057212
1.556909
0.245856
0.576060
0.054463
-0.141219
0.782170
0.635658
0.596377
-0.329759
0.457247
0.663397
0.254245
0.525849
0.098296
-0.075304
0.299183
0.548365
0.150779
0.170902
-0.021454
-0.277862
-0.065773
0.387905
0.829177
0.019758
1.681266
0.509547
0.809496
0.229273
0.025258
-0.050718
-0.245919
0.342001
-0.003183
0.549174
1.905170
-0.182438
-0.152933
0.422030
0.013802
0.666504
0.452764
1.306175
0.628068
-0.286567
0.397982
0.218467
0.355079
0.054845
0.571331
0.711717
0.156240
0.641681
0.425807
0.252877
-0.091244
0.414647
-0.141484
0.011591
-0.176504
0.359068
0.887201
-0.153223
0.273698
0.267996
0.475964
0.051197
0.678398
0.561591
0.540091
0.757468
0.584661
0.249736
0.311488
0.202231
0.324233
-0.309026
0.646905
1.202821
0.371475
0.559445
-0.180875
-0.106323
0.370020
0.980669
0.296914
0.682421
0.092727
0.490186
-0.319386
0.240102
0.039410
0.534282
0.539000
0.270099
0.270479
-0.125839
0.416714
0.028984
-0.454479
0.384155
0.063483
0.646056
0.091102
0.558635
0.298607
0.655846
0.571972
0.243843
-0.073143
-0.024354
-0.454517
0.286111
0.486820
0.505973
0.550267
-0.410817
0.170908
0.870116
0.657275
0.645904
0.024958
-0.113621
0.059498
0.751161
0.296794
0.508137
-0.209026
0.097120
0.740856
0.020946
-0.104512
0.112465
-0.174574
0.935660
0.053414
0.175655
-0.051918
0.165716
0.537348
0.639223
0.539487
0.477800
0.211414
0.080302
0.077944
0.687765
0.558433
1.924231
0.351612
0.011341
0.317984
-0.109368
0.084758
0.131363
-0.341540
-0.278052
0.816726
-0.348354
0.241874
-0.004617
-0.048913
1.618608
0.346487
-0.029994
-0.242543
-0.167061
0.705588
0.186948
0.246238
-0.031260
-0.099174
0.068949
-0.074037
0.216436
0.556894
0.533427
0.324752
0.203015
0.564874
0.211787
0.570053
-0.061582
0.063467
-0.269105
0.020418
0.388094
0.086338
0.060218
0.245038
0.667382
0.304660
0.829817
0.327934
0.030524
0.148904
0.349266
0.123805
0.894094
-0.055027
0.559806
-0.006549
0.037621
0.080049
1.640367
-0.350894
0.132719
-0.196202
0.373500
0.648534
0.673741
-0.263874
0.252907
-0.227960
0.138149
0.526265
0.174064
-0.008896
0.871874
0.701566
0.626321
0.726078
0.028892
0.500128
0.140281
0.502492
0.507603
-0.108825
1.218488
0.593545
-0.148638
0.361850
0.247328
0.407975
0.165997
1.428958
0.485007
0.322598
-0.159066
0.333483
0.079568
-0.071354
0.217832
0.501374
0.126312
0.344961
-0.004438
-0.098493
-0.136693
0.301036
0.560207
0.743437
0.606918
0.135263
0.473024
0.333174
0.620138
0.323292
0.214057
0.627234
0.184495
0.611954
0.543971
0.637552
0.423244
-0.267920
0.459025
0.089766
0.425502
0.480945
0.453435
-0.319505
-0.454139
-0.341238
0.723617
0.312310
-0.219578
0.206738
0.469149
-0.110421
0.411056
0.040848
0.615369
1.023791
0.432583
0.270285
0.388494
0.352786
-0.075958
0.083537
0.008385
0.356338
0.099713
0.004928
0.212510
0.552526
-0.044612
0.673189
-0.077281
0.699298
0.604357
0.619007
-0.297888
0.870075
0.576897
0.430052
0.300625
0.418471
-0.074235
0.674395
0.628632
-0.319053
0.168394
2.044069
-0.172642
0.006599
0.136008
0.643367
0.592679
0.194409
0.272512
-0.063862
-0.217760
0.384289
0.296965
-0.007188
0.296878
0.597758
0.173194
0.985237
0.662053
0.004135
0.690406
0.734140
0.057626
-0.085705
0.565375
0.413646
-0.243415
0.677119
1.564962
0.697875
-0.444949
-0.063269
0.782774
0.085881
-0.074971
0.137699
-0.013594
-0.176510
0.366726
0.341805
0.156166
1.670525
0.008136
0.637669
-0.023845
0.614478
0.311947
0.471219
0.232119
0.368095
0.733411
0.481779
-0.054869
1.146252
0.501264
-0.066584
0.769024
-0.104705
-0.243396
0.395506
-0.265412
-0.019134
0.081888
0.547680
0.330244
-0.055622
-0.025794
0.505840
-0.156051
0.708671
-0.083555
0.188599
0.662482
0.190268
0.263442
-0.043156
0.210557
-0.275302
0.716638
0.366011
0.349363
0.435522
0.228751
0.378357
0.507304
1.349862
-0.328785
0.810860
0.256161
-0.191739
0.741092
0.367336
0.121351
0.230875
0.181838
-0.235704
0.312810
0.457016
0.678011
0.312197
0.127036
0.071007
-0.041778
-0.160783
0.159011
0.475667
0.138029
0.469366
0.500989
0.174967
0.193328
0.252230
-0.100421
-0.061624
0.109623
0.035513
0.319493
0.249314
-0.130090
0.600371
0.474242
0.708260
-0.039073
1.087685
-0.129839
1.336342
-0.294091
0.343897
0.387441
0.721174
0.171146
0.566436
0.798761
0.084815
-0.124590
0.465364
-0.090212
0.511868
0.134136
1.167703
0.018570
-0.124978
-0.005624
0.198724
-0.187921
0.592180
0.048988
0.563057
-0.119588
0.334690
0.085060
0.497729
0.331127
-0.116642
0.586270
0.308558
1.583760
0.762928
0.023140
-0.108115
0.706603
-0.097251
-0.107480
0.609971
2.049274
-0.119110
0.077188
-0.274907
-0.287827
0.766318
0.536221
-0.032549
-0.244276
0.050699
0.571945
-0.166275
0.029757
0.046045
0.622806
-0.215434
-0.412954
0.140939
-0.037160
0.265940
0.131911
0.432594
0.551357
-0.023422
0.488385
-0.251738
0.134797
0.424042
0.210240
0.047180
0.575185
0.046428
0.328389
-0.232240
0.053526
0.541020
1.005293
0.016979
-0.145814
-0.196399
0.498168
0.851943
0.271048
0.555885
-0.081139
-0.096613
-0.094939
0.113284
0.178865
-0.235977
0.663290
0.610470
-0.088330
0.118972
-0.194018
0.838963
0.320281
0.177424
0.305713
0.160067
0.493349
0.947005
0.423627
0.292456
0.041263
0.729536
-0.083950
0.014455
-0.182597
0.241711
0.558686
1.019959
0.132230
0.491969
0.496328
0.577091
-0.242455
0.768725
1.728502
0.372125
-0.304879
0.558904
0.273811
-0.299929
0.183959
0.261755
-0.082873
-0.116502
0.575302
0.549024
0.311026
0.315968
0.803603
-0.169255
-0.098237
0.024443
0.035575
0.744142
0.308098
0.425606
0.369831
-0.053203
0.317895
0.094901
0.677327
-0.118914
0.737259
0.791438
-0.093308
0.713606
0.153064
-0.037123
0.254014
0.653083
1.186457
0.063629
0.256046
0.008171
0.313089
0.000243
0.292931
-0.225525
0.719856
-0.206053
-0.060024
-0.391779
0.142268
0.165707
0.318830
0.902486
0.548304
0.156862
-0.291520
-0.038383
0.331870
-0.504424
0.270053
0.346160
-0.197112
0.633957
0.243431
0.406272
-0.162655
-0.180192
0.357685
0.091993
-0.084364
0.355927
-0.359708
0.846222
-0.053361
0.216711
0.426147
-0.350991
0.237779
-0.055972
0.051612
0.294787
0.299429
0.249753
0.384476
-0.011952
0.584776
0.258608
0.333277
1.120380
0.438636
0.017544
-0.225334
0.399947
0.600570
0.400412
-0.142159
-0.205509
-0.239452
0.333376
0.650767
0.074310
0.084272
0.577140
-0.025473
0.125083
0.719936
0.289621
1.449470
-0.248555
0.029283
0.248931
0.560294
0.515749
0.252565
-0.038562
-0.155806
0.014567
0.422258
0.600277
0.572749
0.139388
1.099067
0.586054
-0.267173
-0.097173
0.419504
0.150595
0.178727
0.427635
0.209776
-0.095851
-0.214831
-0.226529
-0.414514
0.167339
0.428074
0.725972
0.544649
-0.015239
0.012840
-0.070371
0.289252
0.534182
0.521461
0.492455
0.161786
-0.000850
0.730096
-0.210658
-0.061403
0.551903
0.562421
0.079609
0.517334
0.644330
0.246309
0.197179
0.834527
-0.166205
-0.185423
0.174920
-0.070234
0.051040
1.669344
-0.089699
0.714155
-0.272577
0.035914
0.571604
0.017251
0.199593
0.535552
0.466384
0.072331
0.599476
0.340444
0.698977
0.857897
0.537824
-0.121502
-0.016684
0.112392
0.484909
0.149193
0.072802
-0.012190
0.797132
0.862172
0.014185
-0.353859
0.260305
0.849437
0.094900
0.035443
1.060045
0.433126
-0.226520
0.395645
0.944017
0.453520
-0.173133
0.291832
0.157971
-0.281123
0.353143
-0.274630
0.660453
0.579363
0.016867
0.155411
0.711669
0.579987
0.813968
0.426038
0.315157
-0.130847
0.756513
0.101996
0.519933
0.038356
0.294672
0.335125
0.093523
0.792888
0.392680
0.546082
0.407529
0.536984
0.122714
0.381732
0.165929
0.085851
-0.338940
-0.134352
0.444866
-0.209098
0.078576
0.360651
0.616115
-0.001275
0.527553
0.310138
1.584530
0.597993
-0.081933
-0.068784
-0.232789
0.005045
0.514198
0.315508
0.291203
0.213092
0.103205
0.603345
0.035549
-0.285735
0.151082
0.723506
0.569656
-0.275982
0.348091
0.057904
0.529726
0.308278
-0.072126
0.092832
0.160332
0.295425
0.358104
0.097029
-0.361723
0.338808
1.207235
0.345427
0.342423
-0.053044
0.704157
0.342928
0.086360
0.763963
-0.006489
0.609055
-0.010880
0.452615
0.210462
0.384732
0.512285
-0.131263
0.873878
0.446938
-0.180661
0.308130
0.874817
0.532482
0.263400
0.203874
0.680709
-0.152449
0.685278
1.515734
0.257239
-0.479460
0.057917
0.505303
0.430906
0.267586
0.491109
0.107545
-0.040063
-0.502671
0.139484
0.318973
1.832759
0.494953
-0.085967
0.339275
0.299314
-0.471263
0.421703
-0.311949
0.371990
0.623400
-0.629335
-0.020191
1.974294
-0.089801
-0.331099
0.400019
0.245554
-0.538638
0.017594
-0.303368
-0.379054
-0.395388
0.369269
0.442574
-0.019949
0.371339
0.256472
0.196964
0.508615
-0.457770
-0.106010
-0.440189
-0.546386
0.115306
0.335074
1.346462
0.051929
0.438127
0.186479
-0.177708
-0.068569
0.206705
0.079212
-0.286691
1.564007
0.256546
0.727914
0.516585
0.404531
1.636165
-0.153651
-0.442595
0.519400
0.765413
0.585888
-0.199536
1.201552
0.331809
0.219881
-0.007142
1.696973
-0.413427
-0.088377
0.338975
0.402302
-0.160524
-0.030691
-0.281387
-0.375294
-0.482020
0.248725
0.172448
0.606518
-0.216295
0.451700
0.518340
-0.110024
0.333344
0.341118
0.745985
1.800821
0.073257
2.542875
0.364125
2.201507
0.259193
0.561001
1.085892
-0.030195
0.620140
-0.386572
-0.189742
0.299921
0.187395
-0.081771
0.218094
-0.382131
-0.045050
1.584159
-0.353156
0.418117
-0.183072
0.344922
0.042067
0.386455
-0.326335
1.087646
0.323510
-0.279874
-0.383169
0.182920
-0.208126
0.026605
0.251809
0.573833
2.053669
0.261220
0.590820
0.369982
-0.214718
-0.016075
0.435148
0.069236
2.261619
-0.117796
0.111455
-0.592316
-0.033028
-0.094659
0.168372
-0.011452
-0.104596
-0.313763
-0.090350
0.248643
0.474865
0.242236
0.041571
-0.134905
0.228199
0.297651
-0.065543
-0.289482
0.423266
0.277869
0.455546
-0.323530
-0.108805
0.390276
0.520969
0.174939
0.134054
-0.019177
-0.107607
-0.483219
-0.635666
0.230729
-0.419612
0.156226
1.480359
0.389862
-0.188196
-0.187565
0.748613
0.554051
0.040359
0.179188
-0.316631
0.130754
-0.028771
-0.234096
-0.249363
-0.138213
-0.316629
-0.410981
0.109258
-0.846630
-0.306251
0.726552
0.398254
0.374217
0.045254
1.042280
0.104177
1.709313
0.232241
0.125264
-0.135475
0.233672
-0.361122
-0.202409
-0.306445
-0.083529
1.568691
1.523589
0.329196
0.262718
-0.403801
0.379362
-0.154569
0.167412
2.663655
0.073280
0.313761
0.637692
0.078972
-0.448415
-0.276282
0.033752
0.045349
-0.475042
0.017643
0.592014
0.222382
0.217675
0.140363
-0.305392
-0.082810
0.387583
0.356086
1.671852
-0.528574
0.630011
0.182915
0.278803
0.268143
-0.033076
0.096367
0.156100
-0.123396
0.312778
-0.119574
-0.475341
-0.429865
-0.431416
0.377858
0.162014
1.736375
-0.285813
-0.022122
-0.693030
-0.260894
-0.020174
1.728316
0.142355
0.060554
-0.024383
0.312239
0.133004
-0.152837
-0.100351
-0.234253
0.804136
0.109654
0.419406
0.143873
-0.490655
-0.155155
-0.514552
0.264585
-0.072343
0.593558
-0.171827
-0.030806
0.787183
-0.119828
-0.243311
0.342365
-0.528641
-0.269859
-0.045770
-0.433712
0.799760
-0.101958
1.059767
-0.671491
-0.049659
1.184507
0.523181
0.788174
0.082487
-0.142488
-0.106496
0.518790
0.030052
-0.414929
0.190390
0.224721
1.834286
0.376674
0.184509
0.273669
0.262346
2.433170
-0.281198
0.147912
-0.384755
0.345116
-0.226748
0.057831
-0.322605
0.222450
-0.023212
0.246113
0.351505
-0.125596
1.432478
1.777967
0.144627
-0.012771
0.035318
-0.086246
0.113057
1.787929
-0.394149
-0.250467
0.618496
0.096455
0.622824
-0.101954
-0.179049
1.943942
-0.364570
0.511530
-0.178798
-0.114835
0.300848
-0.249853
-0.250538
-0.032731
0.095222
-0.207445
-0.230832
0.382248
0.400938
-0.145420
-0.026606
0.455403
0.148195
-0.070904
-0.278115
0.180243
-0.122545
0.290539
0.017631
0.474916
-0.361288
0.057023
-0.012113
-0.344888
0.409964
0.544517
0.087867
0.675571
0.562907
0.543134
0.101072
0.860766
0.145374
-0.041819
0.331787
-0.543912
0.510516
1.609144
-0.580146
0.537290
-0.600605
-0.014794
0.399301
0.022336
0.092984
0.342271
-0.396120
-0.388903
0.146121
0.178557
0.680283
0.522723
-0.224671
0.203885
0.602569
0.316226
-0.110282
-0.027228
0.513339
-0.483664
0.067854
1.362808
-0.040142
0.420211
0.310043
0.979857
0.441865
0.550888
1.550139
-0.307203
0.294713
-0.049040
0.237981
0.003643
0.446899
0.644947
-0.264108
-0.362710
-0.637397
0.141074
0.496388
-0.315068
0.293579
0.418442
0.082606
1.085198
0.501503
0.513796
0.137217
0.169663
0.653869
-0.515834
0.500025
0.008069
0.561954
0.590615
0.630283
0.662306
0.128881
-0.140455
0.696444
0.101542
0.123673
0.181325
0.532024
-0.096501
-0.141391
-0.051090
0.497470
0.025497
-0.313799
0.406860
0.210564
0.164259
-0.070816
-0.472796
1.520367
-0.285678
0.475664
0.265147
0.342252
0.412654
0.481214
0.102748
-0.222520
1.302701
0.351702
0.708581
0.423612
-0.076043
-0.451770
0.598247
-0.339439
0.283138
0.022284
-0.429493
0.247616
0.361558
-0.400987
-0.277780
-0.589220
-0.260975
0.267973
0.369562
-0.300134
-0.373122
2.671443
-0.346569
-0.115947
0.107533
-0.420987
-0.250993
-0.171645
-0.391230
0.371360
0.135213
-0.493949
0.255108
0.019661
0.457366
-0.164894
0.285576
2.256743
-0.058374
-0.063943
1.569873
-0.213428
0.382157
0.243393
0.122459
0.435067
0.487545
2.436643
1.796545
0.352339
-0.583904
0.058375
1.566001
0.046149
0.403465
-0.042066
-0.010859
0.643992
0.059026
0.222570
0.498101
1.068080
0.248412
0.137164
0.299415
0.359138
0.388082
-0.127641
0.045612
0.759532
0.328703
-0.259960
-0.383430
0.613141
-0.375243
0.377479
-0.126063
-0.366740
0.243772
0.259773
0.274803
0.387272
-0.557084
0.032542
-0.362419
0.471891
0.361257
0.190604
0.226598
-0.055791
0.382133
0.292960
-0.047832
0.021490
0.474992
0.579559
1.818339
0.227409
-0.063930
0.062357
0.075015
0.084813
0.308863
0.026659
0.675701
1.158409
-0.234748
0.817152
0.345922
0.323422
1.611023
0.210258
0.176935
0.332203
0.595592
0.143134
0.066312
0.958091
0.694151
0.503995
0.034832
1.785498
-0.111274
0.391758
0.028479
-0.130180
0.373121
-0.051780
0.049805
0.500557
0.087331
0.645236
0.214880
0.176975
-0.196001
-0.083311
0.636217
0.325551
0.013507
0.486627
-0.139210
1.579264
-0.421496
0.975101
-0.060576
1.655334
0.376798
0.424551
0.702177
0.285583
0.474364
0.383785
0.313695
0.481544
0.115682
-0.219967
0.747763
-0.179678
-0.296008
0.986710
0.497832
-0.255092
-0.062825
-0.020610
-0.081328
0.379802
0.001948
0.978891
0.620227
0.473051
-0.450755
0.557627
0.161292
-0.003709
0.030379
0.512870
1.148523
-0.045788
0.125151
-0.024818
0.762869
0.715272
0.585912
0.345762
1.390928
-0.023935
0.509373
0.132372
0.093911
-0.153384
-0.447533
-0.248686
-0.029444
0.125736
0.220718
0.378572
0.676345
-0.239563
-0.219771
0.429182
0.322733
-0.217344
0.573567
0.031430
-0.156313
-0.211341
-0.333684
-0.103712
-0.006345
0.040567
0.252640
0.259493
0.215703
-0.178525
0.039918
-0.187397
0.271264
0.433262
0.676058
-0.287455
1.436382
-0.227320
-0.019219
-0.082178
0.285643
0.913880
0.768270
-0.040750
0.706135
0.752680
-0.004213
0.451812
0.710224
-0.285003
0.593529
-0.241944
0.053659
0.301026
0.056161
0.552804
0.073991
0.396625
-0.214351
1.443482
-0.154377
0.683239
-0.039500
0.416138
-0.127822
-0.041761
0.575439
-0.378120
-0.309604
-0.220987
1.162851
0.699869
0.741306
-0.228010
-0.424695
0.437138
-0.162655
-0.010494
1.520227
-0.129944
-0.121114
0.180933
-0.047990
0.077572
0.282999
0.118364
0.122774
0.561107
0.140309
0.303594
0.524090
-0.133698
0.486648
0.765629
-0.144279
0.638247
-0.265698
0.815208
0.383352
0.751827
-0.268893
-0.214348
0.628564
0.686960
0.207166
0.467813
0.499264
0.128844
-0.170840
-0.232661
0.022837
-0.122351
0.187857
0.498193
0.455662
0.746094
0.225846
0.020597
0.586077
0.297019
0.711576
0.348986
-0.143944
0.491085
0.395642
-0.002651
0.497372
0.194786
0.060656
1.216595
0.569143
0.136425
0.259153
0.148971
0.147158
0.451111
0.124885
-0.192038
0.127769
0.454981
0.138523
0.654933
-0.291478
0.605454
0.425705
-0.049264
0.502307
0.376183
0.567136
1.026491
0.293364
1.878055
-0.224706
0.307799
1.492622
0.773984
1.568364
-0.036253
0.221408
-0.045134
0.785386
-0.219199
0.309484
0.435245
0.535584
1.098391
0.235455
0.122695
-0.006383
0.609842
2.059116
0.513086
0.329592
-0.217001
0.450093
-0.063654
0.414689
0.570698
0.697068
0.090010
0.320254
0.188931
-0.209727
1.513203
1.541070
0.511935
0.513392
0.751929
0.073188
-0.142428
1.117191
-0.002308
0.138941
0.606711
0.570033
0.039722
-0.295530
0.228048
0.994236
0.054297
0.114495
0.292305
-0.053447
-0.156907
0.276580
-0.297873
-0.043689
-0.181865
0.335109
-0.179018
0.125247
-0.142403
0.441786
0.565593
-0.132387
0.406569
0.634682
0.498797
0.050883
-0.277833
-0.185092
0.219341
0.364027
0.158278
0.249506
0.281598
0.305470
0.224311
-0.229975
-0.164833
-0.129257
0.199043
0.394938
0.032023
1.036835
0.367983
-0.138553
0.258253
0.113728
-0.229765
1.277216
-0.189543
0.000364
-0.154502
0.752183
0.175086
0.648285
0.481665
-0.193564
-0.025145
0.762737
-0.183629
0.670494
0.346697
0.500213
0.125166
0.009580
0.149524
0.456811
-0.073960
0.072930
-0.308374
0.260930
0.017097
1.083473
-0.333906
0.418353
0.289976
1.451727
0.057040
0.398981
1.148816
0.338797
0.497896
0.385825
0.492918
-0.024644
0.368982
0.116439
0.268686
0.575185
-0.022956
0.381462
0.613225
0.701841
0.229765
-0.105394
-0.246411
1.156917
-0.018781
0.077651
-0.125481
-0.120450
0.746881
0.085460
0.115053
-0.087362
0.009462
-0.176144
0.762156
0.479129
0.320875
0.107346
0.134539
0.435847
-0.171910
0.822618
-0.256320
0.466078
-0.111449
0.332242
0.739062
0.453072
-0.042242
0.627116
0.531230
0.398720
0.574344
0.510413
1.093085
-0.144529
-0.190738
0.312232
-0.080012
-0.172839
0.007561
0.311555
-0.085972
0.999992
0.663005
-0.075698
-0.103756
0.314089
0.070265
0.394131
0.090425
0.404452
0.405711
0.236537
0.468099
-0.260817
-0.433399
0.096751
0.175583
-0.082803
-0.194538
0.149881
0.042257
-0.256410
0.995461
0.356707
0.029801
0.010780
0.229614
0.440089
0.177929
0.575605
0.179073
0.302093
0.302345
0.206703
0.373205
0.442671
0.062955
0.059877
1.576590
0.464483
0.660294
1.260472
-0.256887
0.261565
-0.350153
-0.191777
0.506659
0.444793
1.409624
0.481054
0.020481
0.389364
-0.254731
1.630458
0.348310
0.059228
-0.178061
-0.119803
-0.139735
0.007267
0.042143
0.318310
1.129887
0.606707
-0.185223
0.626870
0.625639
0.168833
-0.157892
-0.031656
0.021772
-0.153942
-0.349588
-0.233637
0.851559
-0.143755
0.150343
0.137027
-0.229296
0.621282
0.060015
0.043260
0.464364
-0.146601
-0.091411
0.016833
0.538137
0.101309
0.460912
0.509117
0.632502
-0.527986
0.395688
-0.297731
0.469666
0.255334
-0.342886
1.533018
-0.211499
-0.016626
0.699767
-0.101654
-0.350527
-0.143355
-0.000217
0.478779
0.937680
0.511240
-0.116680
0.262637
0.446921
1.477433
-0.104570
0.377524
0.609096
0.156812
-0.277024
0.409451
1.259363
0.544302
0.129654
0.024397
1.725529
0.617113
0.131424
0.416687
0.378548
0.190343
0.051106
0.119625
0.365083
-0.172373
0.538388
0.644066
0.465053
-0.329725
0.148952
-0.296434
0.937815
0.311939
0.470691
0.596552
1.744106
0.247740
0.911454
0.381159
0.885789
-0.107008
0.209425
1.233904
-0.348073
0.884897
-0.094922
0.620071
0.620464
0.376641
0.474616
0.395411
-0.101497
-0.498538
0.704179
0.440539
0.282674
0.547796
0.351283
-0.255485
-0.143302
-0.393896
0.872083
-0.290612
0.375639
0.426501
0.382550
0.228721
0.542783
-0.208346
0.022033
1.925469
0.231681
0.419188
0.283856
0.406683
0.419843
0.415878
0.295952
1.234419
0.066990
0.154146
-0.376488
0.263017
0.288860
-0.238923
-0.136874
-0.049435
-0.055034
-0.295577
0.184424
-0.027528
-0.151702
0.479273
-0.185531
0.313182
0.358956
-0.216223
0.089307
-0.033522
-0.239855
0.233356
-0.203975
0.242611
-0.098355
0.461052
0.152262
-0.218649
-0.140148
0.882878
0.221742
0.400567
-0.079005
0.576337
0.010953
1.366358
-0.118432
0.391001
-0.172194
0.213761
0.807806
0.484107
0.183495
0.687922
0.167560
0.605320
0.424047
0.701404
0.534739
0.623641
-0.127973
-0.155113
-0.101822
0.069870
0.592987
0.532220
-0.381255
-0.281398
1.467359
0.106120
0.459150
0.393516
-0.194063
0.135823
0.291534
0.263646
-0.184500
0.132579
-0.122559
1.266456
0.070170
0.733660
0.591432
0.169852
0.411278
0.071667
0.193585
1.466603
0.095558
-0.097292
0.157420
0.291483
-0.107378
0.856638
0.471546
-0.021994
0.592975
0.715610
0.091779
0.579836
-0.297900
0.050745
0.254390
0.081319
0.465989
0.556359
1.729013
0.404713
1.016067
-0.256660
-0.089382
0.263106
0.691546
0.151574
-0.303098
0.477991
0.307575
0.262328
-0.307559
0.427069
0.334639
0.089446
0.241898
0.727701
0.221322
0.322733
0.147869
0.093174
-0.030793
1.627034
-0.088172
0.364042
-0.029361
0.447246
-0.269068
0.804668
0.068447
-0.291955
1.545252
0.707045
-0.203954
-0.287223
-0.078585
-0.188634
-0.150857
0.126418
0.450896
0.704532
-0.110318
0.706559
0.635928
-0.399787
0.075080
0.150405
0.114467
0.447161
0.197770
-0.141861
0.478442
0.787139
1.084515
-0.209912
0.309560
1.178636
0.840382
1.303709
-0.042942
0.161466
0.337599
0.107353
-0.141239
0.351838
0.210836
0.385989
1.804953
0.409078
-0.025367
0.343114
0.360227
1.345755
0.430619
0.060973
-0.038671
-0.162748
0.392427
0.756748
-0.097288
-0.025264
0.723072
0.104219
-0.039626
-0.370204
1.311961
1.314274
0.037472
0.378547
0.260478
0.592035
0.662786
1.008474
-0.161494
0.022116
0.540348
0.186439
0.773301
0.344670
0.018076
0.579753
0.043995
0.654909
0.164460
-0.146216
0.114887
0.327064
-0.003483
0.684186
0.210679
-0.038487
-0.173475
0.150854
0.267966
0.218771
0.430722
0.076740
-0.043242
0.025347
0.573080
0.109620
-0.368321
0.694405
0.169361
0.114354
-0.079050
0.133164
0.648331
-0.198278
-0.251832
-0.073214
-0.083064
0.384298
-0.103781
0.348861
0.452809
1.005805
0.372392
-0.423377
-0.044902
-0.489320
0.111815
0.979602
0.233016
-0.247687
0.324870
0.039871
0.136161
0.677846
0.160018
-0.158206
0.063153
0.350603
-0.268773
0.708812
0.684890
0.177741
0.047142
0.714506
0.323304
-0.097356
-0.212273
0.328478
0.651013
-0.180207
0.226569
1.463646
0.193926
0.632233
0.385324
1.676404
-0.332127
-0.164090
1.075880
0.372188
-0.313227
-0.207740
0.813997
0.125309
-0.195022
0.115871
0.453998
0.099479
0.564342
0.481630
0.175837
0.627333
0.007461
0.379194
0.384007
1.108392
-0.088360
0.569756
0.081542
-0.230642
-0.202151
0.501954
0.385033
0.491438
0.639837
0.189185
0.565633
0.720337
0.123132
-0.162113
0.409138
0.426981
-0.034934
0.418296
-0.115232
0.039050
-0.516339
0.658642
0.836328
0.635480
0.384325
0.286994
0.639130
-0.397018
-0.281190
0.248730
1.248823
-0.069643
0.039685
-0.325008
-0.115318
0.108551
-0.213183
-0.453770
-0.225782
1.409623
0.263009
0.587969
0.547082
-0.283650
0.464472
0.319568
0.483821
-0.064365
-0.073174
0.771021
0.572254
-0.144591
0.427485
0.298172
-0.525783
0.204649
0.666761
0.556415
0.533971
-0.250644
1.140312
0.004159
0.110453
0.386053
0.239827
0.485435
-0.165407
0.365074
0.459095
-0.181054
0.501445
0.086728
0.553725
0.292609
0.345242
0.634604
1.351966
0.140165
0.766204
1.556963
-0.046720
0.471630
0.062563
-0.120726
-0.081854
0.156143
1.768127
0.753840
0.138365
0.239580
0.023819
1.893193
-0.184601
0.350593
0.400736
0.384935
0.208592
0.290577
0.330457
-0.049824
0.936059
-0.075786
0.273848
0.531712
-0.210425
0.012346
0.395447
0.051765
0.399893
0.401957
0.036622
0.497968
1.257838
-0.314157
-0.098370
0.376124
0.027561
-0.217069
0.403243
-0.372511
0.472168
-0.301442
-0.174425
0.407417
-0.352345
0.501892
0.374978
-0.067092
0.478209
-0.486757
0.661164
0.363311
0.280887
0.107605
0.302052
1.675110
0.492658
0.092479
-0.029724
0.104160
-0.543440
0.315253
-0.042536
0.258202
2.015787
0.266557
-0.229367
0.177196
0.349004
1.137997
0.486300
0.303797
-0.041794
1.559946
0.028034
-0.064641
2.680194
-0.077933
0.377401
-0.106841
2.808693
0.201227
-0.131338
-0.000092
-0.309481
0.583415
-0.372959
0.204682
-0.064652
-0.395092
-0.336836
0.160488
-0.122636
-0.006140
0.300311
-0.389280
-0.084783
0.541582
0.800654
0.575176
3.166209
0.310882
1.551641
-0.370141
1.972589
0.296545
0.388185
1.898704
-0.492840
0.183199
-0.112460
0.292531
-0.287710
-0.001379
-0.285442
-0.134212
0.020005
-0.478580
2.299943
0.125257
0.256365
0.570918
0.477645
-0.546057
0.092126
0.195219
1.930353
0.248073
0.309542
-0.236126
-0.286189
0.030592
-0.279498
0.133816
0.422902
2.074330
0.196150
-0.035796
0.211953
0.146341
0.629440
0.466367
-0.305537
1.522808
-0.135103
0.015744
-0.593343
0.243984
0.127528
0.134335
-0.392694
-0.211893
0.631744
-0.297630
-0.084037
0.009572
0.446691
0.205351
0.519829
-0.107121
0.494978
0.056520
0.523467
0.481395
-0.342757
0.096599
0.406443
0.145991
-0.329922
0.157326
-0.040920
-0.213451
-0.224536
0.186447
0.347447
0.236491
-0.117256
-0.237314
-0.186732
1.171018
0.624743
-0.159454
-0.075422
0.441960
0.414754
0.314710
-0.227013
-0.070722
0.564008
-0.155719
0.114076
0.383102
0.154669
-0.023788
0.244036
0.097330
-0.567660
0.199400
-0.174765
-0.139407
-0.318150
-0.043446
0.839880
-0.006430
2.200583
0.013012
-0.351246
0.056978
0.144840
0.001393
-0.226526
-0.234402
0.152035
2.678964
0.892533
0.570065
-0.390672
-0.148236
1.777012
-0.274312
0.104672
1.448904
0.339433
-0.482103
0.526598
0.022633
0.038108
-0.166675
-0.503344
0.499940
-0.075307
-0.126548
-0.122397
0.284806
-0.054292
0.429184
0.521786
0.153198
-0.195761
-0.277888
1.621131
-0.085978
1.846204
-0.306148
0.378210
0.096688
-0.153604
0.775146
0.295446
-0.109753
-0.402791
-0.123126
0.015294
0.308809
-0.397121
0.082419
0.060099
1.661301
0.022649
0.181597
-0.034256
0.370318
0.122124
2.624373
0.074775
-0.387297
0.332016
0.034590
0.399360
0.454106
-0.056135
0.337922
1.970739
0.469069
-0.309970
-0.263760
-0.274887
-0.187887
-0.373327
-0.362396
-0.054918
-0.266739
-0.085892
-0.198431
0.700390
0.114213
0.171865
-0.067760
0.089104
-0.413381
0.083753
-0.045292
1.038290
0.613512
1.582004
-0.431971
-0.191309
2.783946
-0.031853
2.625201
0.096542
0.235696
-0.036823
0.528338
-0.077616
0.076766
0.493896
0.263693
2.106203
-0.290269
0.366659
-0.167983
-0.238253
2.178176
0.006127
-0.366328
0.129585
0.307456
-0.104377
-0.208625
0.745438
0.384406
-0.036613
0.461234
0.462056
-0.278721
1.867991
1.949926
-0.266499
-0.023846
0.415482
0.466735
0.529581
1.799005
-0.002894
-0.029538
0.104216
0.097063
0.577634
-0.042237
0.234823
1.408360
0.127969
0.357213
0.005970
0.570516
0.446005
0.351241
0.279921
0.609163
0.430337
-0.035676
0.146429
-0.265491
-0.044211
-0.117905
0.115922
-0.190245
-0.274095
0.512167
0.091532
0.201999
0.147096
0.058258
0.208525
-0.016553
0.268670
-0.081050
0.466298
-0.085313
0.092263
-0.163385
0.320890
-0.062399
0.622925
0.439190
-0.268934
2.542795
0.635437
0.298379
-0.071360
-0.257626
0.044069
1.661329
0.354527
0.433256
-0.305298
0.039742
-0.504284
-0.127446
-0.175193
-0.026368
0.433193
0.557912
0.271484
0.176750
-0.316097
-0.103519
0.053880
0.466176
0.214613
-0.364854
-0.215293
-0.460137
-0.120711
-0.447402
-0.250407
1.146537
0.016474
-0.422085
-0.178976
2.787128
0.178477
0.243454
2.443995
0.048955
-0.188824
-0.481959
0.540123
-0.079723
-0.100462
0.439095
0.448714
0.348812
0.229390
0.021297
0.059477
0.194775
0.406476
0.600174
-0.119434
1.536031
-0.048864
0.243582
0.144397
0.128279
0.119348
0.344897
0.412102
-0.108673
0.411780
0.551491
-0.367035
0.038181
0.090093
-0.370344
0.383767
0.544758
-0.342217
0.167031
-0.240386
-0.123286
-0.135952
0.630549
0.066094
-0.284798
-0.326839
0.353801
0.377179
-0.362113
0.036659
-0.143760
0.844122
0.502553
0.224801
0.353312
-0.220541
-0.100157
0.329507
-0.515323
0.117933
0.814810
-0.339142
0.082702
0.444223
0.038990
0.090998
0.283793
-0.038328
0.279614
-0.158148
0.468025
0.711371
0.272068
0.130698
-0.136760
0.094638
0.443566
0.387433
0.010360
-0.189700
0.041290
1.279459
-0.106879
0.085020
-0.158349
-0.146322
0.357947
0.246878
-0.464625
0.432100
0.508747
0.176113
0.598585
-0.077523
-0.142249
0.366606
-0.303750
2.404715
-0.165844
0.394080
2.037815
0.362694
0.364738
0.358125
-0.209456
0.345942
-0.000277
1.305682
1.641523
0.522043
0.012000
-0.206586
1.785446
0.547717
0.132192
0.542983
-0.210043
-0.054961
-0.154692
-0.034272
0.674364
1.252820
0.237550
0.535017
0.399474
-0.292202
0.340017
0.501906
0.701248
0.492758
0.162893
-0.483392
0.057298
0.928083
0.525808
0.631955
0.538596
-0.147344
-0.040855
-0.070258
-0.052718
0.421922
0.010805
-0.223033
0.089488
-0.258500
0.595530
0.462071
-0.236800
0.126579
-0.764392
0.215645
0.328442
0.316587
-0.076746
0.134944
1.629033
0.635978
0.031830
0.573682
0.340345
0.156847
0.398645
-0.247020
0.628734
1.939144
-0.207602
0.303637
-0.074351
0.051059
1.197500
0.554546
-0.044394
0.329956
0.579583
0.361914
0.400954
2.793470
0.343040
-0.326711
-0.345196
2.952031
0.051596
0.595438
0.178947
0.356537
0.143084
-0.239997
0.014019
0.434368
-0.658724
-0.291313
0.359794
-0.302876
-0.165101
-0.129851
-0.646162
0.282097
0.644424
0.292225
0.644112
2.328555
-0.129301
1.272386
0.163955
1.552043
0.351170
0.387876
1.591434
-0.017242
0.478778
0.341916
-0.088533
-0.141762
0.179772
0.512533
0.677753
-0.239175
-0.547644
1.921246
0.365096
-0.076329
0.237744
-0.083209
-0.058991
0.599991
0.204203
2.160537
0.122819
0.421368
0.485629
-0.342507
0.304764
0.002074
-0.201758
0.231170
1.935356
-0.084799
-0.227837
-0.234291
0.340990
0.732977
0.474498
-0.491952
0.772293
0.054179
0.627303
-0.531893
0.174086
-0.329975
-0.182912
-0.222753
-0.002091
-0.018677
0.311457
0.612830
-0.132984
0.064761
0.132402
0.252019
-0.377224
0.143783
-0.267609
0.527536
0.411772
-0.002459
-0.091065
0.197845
0.205340
0.290373
0.502484
0.213078
0.510382
0.128754
0.254030
0.320765
-0.220937
-0.438114
-0.202546
0.285943
1.392656
0.342264
0.483162
0.356018
0.509061
0.666457
0.443017
-0.302469
0.799051
-0.380635
0.501016
-0.286254
0.087265
0.487275
-0.420049
-0.121424
-0.229766
-0.151586
0.625343
0.557488
-0.103037
0.452951
-0.057195
0.600082
0.117962
2.254416
-0.253467
0.315717
0.789954
-0.086871
0.141031
-0.271912
0.251407
-0.065712
3.065018
1.445442
0.604021
0.123690
0.329218
1.680740
0.295408
0.238861
1.952303
-0.386684
-0.015309
0.633735
-0.068944
0.177806
0.356536
-0.168978
0.371890
0.484275
-0.021080
-0.264196
0.604589
0.175567
0.341218
0.575090
0.050019
0.449248
0.543705
1.657590
0.513646
2.153606
-0.487435
0.363888
-0.043001
-0.300936
0.275186
-0.366789
0.646644
-0.333031
0.348828
0.275090
-0.347547
-0.458373
0.449351
0.312165
1.739747
-0.087207
0.768029
-0.083859
-0.179957
-0.185976
2.432972
-0.155717
-0.465539
0.052648
-0.142598
0.217940
-0.180253
0.588269
0.192961
1.936003
0.420875
0.363781
-0.312817
-0.462769
0.338533
0.077657
-0.212514
0.227899
0.254004
0.535945
0.344181
0.564776
-0.325202
0.081409
0.048693
-0.271865
0.386307
-0.213362
0.544137
0.287703
0.008297
1.980031
-0.413051
0.125234
2.902605
-0.190120
2.760324
-0.419158
-0.278167
-0.046661
-0.022097
0.360327
-0.259321
-0.105596
0.513753
2.296536
0.561223
0.766602
0.305166
0.133983
2.199955
0.021887
-0.129706
-0.288052
0.232760
0.248699
0.012770
0.470430
0.440367
-0.225790
0.435638
-0.087198
-0.069871
1.861316
1.717215
0.061011
-0.188788
0.317895
0.278545
-0.149224
2.691579
0.258482
0.729600
-0.339297
-0.241053
0.586831
-0.295417
-0.251801
1.817501
0.347938
0.242824
0.436890
-0.193754
0.568239
0.364524
0.440955
0.084472
-0.334985
-0.149650
-0.322301
-0.219989
-0.183780
-0.135889
0.370275
-0.336488
0.475211
0.094030
-0.219654
-0.146283
-0.459231
0.068267
-0.247184
0.638496
0.037818
0.019728
-0.216769
-0.306968
-0.060138
-0.333075
0.508375
0.005169
0.338846
0.057595
0.034364
2.380949
0.267125
-0.237289
0.242104
-0.391260
0.394427
1.506063
0.266394
0.644045
0.521452
0.205962
-0.439738
0.448609
0.572890
-0.273008
0.660966
0.699668
0.034854
-0.051185
0.480707
0.428998
-0.073277
0.579914
0.525474
0.355588
-0.271246
0.038210
-0.332701
0.212566
-0.133655
1.237845
-0.485404
0.326354
0.376663
2.598715
-0.206718
0.149452
2.100316
0.575626
-0.072038
0.001112
0.233015
0.101609
-0.041336
-0.119931
0.383406
-0.364289
-0.187880
-0.280642
0.118441
-0.425690
0.637053
0.531981
0.373839
2.077469
0.603385
0.680902
0.184182
0.568538
0.216636
0.501435
-0.056331
0.486738
0.316756
-0.361304
0.039963
0.557962
0.083296
-0.307026
0.430220
0.654748
0.204172
-0.093624
0.050936
0.482229
0.044366
-0.143437
-0.041492
0.478251
-0.402765
0.305178
0.519762
-0.207462
-0.080157
0.492095
0.540213
0.037987
0.297977
0.089189
-0.244847
0.070307
0.221920
-0.008062
-0.116192
0.612200
0.255324
0.255574
-0.238606
-0.373341
0.327188
-0.352584
-0.340669
0.062193
-0.055179
0.457006
0.099465
0.555354
0.345692
0.143748
0.140974
-0.417366
-0.380682
0.199278
0.104020
0.156360
1.104233
-0.117068
0.735525
-0.260399
-0.420636
-0.015855
0.315291
0.153475
0.565559
0.343035
0.591603
0.326510
-0.070364
-0.409587
0.682201
-0.060400
1.501001
-0.152590
0.420008
2.237069
0.364929
0.778760
-0.159335
0.007774
0.040472
-0.471402
1.661980
1.567939
0.239838
-0.337982
-0.165100
1.328015
0.351418
0.018507
0.059922
0.171843
0.359982
0.606215
-0.013489
0.292012
1.596163
-0.227964
-0.105032
-0.029089
-0.087161
-0.024623
0.190436
-0.002154
-0.005678
-0.124800
0.199172
-0.157803
0.961760
0.712908
0.462376
0.392705
0.352674
0.191559
-0.162452
0.309150
0.239508
0.047975
0.628070
0.633841
0.209869
-0.185075
0.341590
-0.283309
0.855162
0.244425
0.408092
0.395640
0.619688
0.300892
0.563385
0.887186
0.543219
0.057425
0.158660
0.802881
-0.040861
0.428321
-0.141413
0.369012
1.758385
0.516305
0.710563
0.386675
-0.000838
1.334065
0.044452
0.454759
0.096156
0.850773
0.350009
0.536760
2.046640
-0.068185
0.618515
-0.174631
3.186793
0.112772
0.737697
0.785970
0.735670
0.562792
0.707852
0.311578
0.715107
-0.198411
0.254305
0.140537
-0.228132
0.330754
0.302375
0.263549
0.126808
0.334102
0.439951
0.259920
2.934118
0.519281
2.197363
-0.379362
1.159838
0.282181
0.797035
1.452399
0.329461
0.611550
0.209387
0.387217
0.071494
0.041951
0.418851
0.040310
0.803763
0.198790
2.282745
0.584354
0.574462
0.249232
-0.104832
-0.311493
-0.233651
0.571229
2.489499
0.227173
0.317801
0.145024
0.271395
-0.319466
-0.059345
0.364630
-0.037967
1.446332
0.145034
-0.190244
0.322903
-0.273796
-0.147912
0.689757
0.468904
0.826612
0.003849
0.233035
0.053240
0.016652
0.672881
-0.136561
-0.182475
0.730088
0.583904
0.010508
0.648413
0.480442
-0.173124
0.553438
0.029513
0.251605
-0.022792
0.742926
0.327409
0.110436
0.597868
0.511992
0.442035
-0.156042
-0.147934
0.130881
0.003352
-0.068054
-0.005670
0.677541
-0.075130
0.221573
-0.181346
0.629528
0.548111
1.368852
-0.109597
0.590000
-0.052404
0.514578
1.166750
-0.056139
0.246963
0.895850
0.376356
0.582921
0.263390
0.690484
0.494053
-0.257937
0.091736
0.081886
-0.317470
-0.109799
0.289460
-0.038066
0.181236
0.592752
0.813257
0.564693
2.175762
0.315445
0.091743
0.810374
0.161094
0.007282
-0.103808
0.087169
0.678900
2.419585
0.939923
0.620610
0.129664
0.429882
1.645229
-0.164533
0.235665
1.315420
0.475605
-0.063922
0.215342
-0.191936
0.331104
0.397791
-0.058236
0.153881
0.410114
0.666178
-0.052202
0.611786
0.277725
0.506204
0.014053
0.635835
0.558353
0.172709
0.915065
0.684682
2.298984
0.588379
-0.191286
0.662203
0.438894
0.392747
0.400030
0.440846
0.254669
0.040643
0.421118
0.273081
0.028559
0.171404
0.573154
0.972232
0.387818
-0.028625
0.109114
0.076029
0.589175
2.544149
-0.100846
0.178443
0.445477
0.210728
0.330824
0.113725
0.546926
0.309645
2.098572
0.525383
0.214160
0.239409
0.431809
-0.016625
-0.101910
0.112571
0.434581
0.393782
0.277859
0.466882
-0.005975
-0.229345
0.734362
0.561188
0.056547
0.590592
0.669639
0.717549
0.522883
0.419803
2.146953
0.058127
0.031575
2.260875
0.335863
2.426780
0.395412
0.198823
-0.129098
0.794963
-0.125856
0.384428
0.235058
0.618048
2.144014
0.389596
0.014746
0.475662
-0.010794
2.179992
0.027762
0.136709
0.717807
-0.110668
0.011686
-0.126968
-0.083000
-0.198185
0.766287
0.109286
0.624098
0.178684
1.557395
2.091256
0.730780
0.043007
0.437222
0.337959
0.518067
2.423300
0.152476
0.676168
-0.075592
-0.045500
0.498262
-0.176140
0.418894
1.800619
0.506575
0.726877
0.401993
0.689483
0.001180
-0.033499
-0.053119
0.270893
0.212976
-0.176963
0.157991
0.308988
0.214948
-0.171786
-0.206075
-0.204196
-0.201928
-0.094052
-0.049801
0.344692
0.471359
0.826385
0.023067
0.144355
0.503221
0.328051
0.348324
0.016801
0.302964
-0.255681
-0.273330
0.185573
0.743549
0.343718
0.163274
2.181303
0.902094
0.188135
0.336906
-0.112271
0.527344
1.670413
0.689347
-0.066781
-0.170925
-0.131252
-0.231571
-0.147447
-0.019362
0.159223
0.521617
0.781202
0.001024
0.778859
-0.022424
-0.186375
-0.067611
0.406125
0.127941
0.725289
0.583251
-0.033199
-0.068201
0.541059
-0.317851
1.427636
0.666023
-0.064378
0.052322
2.345444
0.203154
0.625488
2.011394
0.340304
-0.222725
0.221551
0.343544
0.057906
0.307807
0.422248
0.506118
-0.224959
0.455544
-0.197027
-0.200322
0.451305
-0.046613
0.252261
-0.025142
1.827889
0.284234
0.050409
-0.288208
0.479620
-0.212592
-0.059607
0.071460
-0.164044
-0.029624
0.248979
0.174746
0.463997
0.036842
-0.170928
-0.055854
0.147655
0.357972
0.552385
0.419076
-0.087178
0.327901
0.166784
0.147177
-0.154682
-0.144324
0.057926
0.641793
0.437314
0.432639
0.241233
0.663053
-0.041113
0.448195
-0.028955
0.560368
0.472934
0.183780
-0.119463
0.570382
1.100020
0.432379
-0.088987
0.167162
-0.347956
0.058556
0.401527
0.153788
0.602277
0.155836
-0.027227
0.813694
0.786520
0.249131
0.015950
-0.281548
0.516512
0.396945
-0.116645
0.408790
0.059567
1.176888
0.399754
0.266123
-0.104809
0.650288
0.119068
0.707329
-0.149236
0.346182
0.509396
0.632479
0.095709
-0.217569
-0.039387
0.245256
0.117847
2.321014
0.674782
0.083133
2.194610
0.570439
0.038011
0.044150
-0.046095
0.298877
0.099752
1.246965
1.051621
0.251836
0.696892
0.132743
2.299541
0.369106
0.672255
-0.087188
0.055261
0.071464
-0.211399
0.534549
0.641485
1.705063
0.330028
-0.104067
0.626311
0.682898
0.461630
-0.053631
0.591388
0.215830
0.188447
-0.251998
0.224637
1.485484
0.262547
0.647290
-0.097168
0.243687
-0.038541
-0.168644
-0.028319
0.749325
0.221764
0.134775
0.161346
0.037406
0.174521
-0.247487
0.255710
0.397144
0.203387
0.296584
0.046522
0.136642
0.190350
-0.130333
1.174199
-0.081070
0.119640
0.039214
0.400100
0.334601
-0.142294
0.838246
0.268197
1.737410
0.680878
0.119875
0.256712
-0.066364
1.737185
0.577021
-0.100951
0.673065
0.890047
0.321804
-0.058793
2.445510
0.314534
0.561981
-0.233779
2.528473
-0.055269
0.329430
0.644604
0.457087
0.460807
-0.146501
0.408705
0.675337
-0.172209
-0.051349
0.476228
0.227455
0.004759
0.537252
-0.301840
-0.034614
-0.021709
0.744599
0.032972
2.981427
0.356498
1.414705
0.244857
2.036329
0.471319
0.825701
1.727760
-0.098683
0.583683
0.425600
0.300754
-0.124415
-0.150103
0.191022
0.565817
0.509724
0.116609
1.905379
0.250545
0.518482
0.566212
-0.102949
0.088113
-0.242666
-0.192012
2.323715
0.056737
0.198750
0.283889
-0.125990
-0.391208
-0.083263
0.184587
0.514511
1.298905
0.154129
0.390900
0.450836
0.307155
0.405365
0.033904
-0.036607
1.183979
0.155942
0.499695
-0.063886
-0.125295
-0.142641
0.368947
0.341770
-0.141414
0.406392
0.536635
0.176517
0.293916
0.589762
-0.084241
0.672550
-0.104560
0.478393
-0.011421
-0.100498
0.587702
0.663478
0.636563
-0.228126
-0.081338
0.557781
0.588655
0.659007
0.190938
-0.203750
-0.172315
0.541229
0.175586
0.235457
0.128760
0.360177
1.970133
-0.104857
-0.073689
0.677375
0.341806
1.029187
0.201744
-0.112335
0.521173
-0.003441
-0.133340
0.532548
0.811872
0.023445
0.583314
0.690390
-0.323113
0.648352
-0.181304
-0.040835
0.633472
0.567504
-0.081887
0.743786
0.752880
1.651267
-0.137668
0.233943
0.702682
0.207213
-0.038452
0.389781
0.138029
-0.030524
2.642953
0.818012
0.773623
0.610916
-0.051327
1.423565
-0.063079
0.038195
1.362914
-0.301552
0.267999
0.104087
-0.370438
0.258026
0.252359
-0.308244
0.750508
-0.063781
0.802438
-0.130214
0.068419
0.602173
-0.096303
0.017574
0.102482
-0.151846
0.222350
1.335978
0.468072
2.399485
0.299868
-0.184527
0.640793
0.303396
-0.119242
-0.102589
0.083683
-0.155865
0.340554
0.111449
0.085390
-0.339609
0.750480
0.206961
1.530987
-0.178539
0.355173
0.264496
0.035778
0.109233
2.621519
0.315536
0.022949
-0.079660
0.630632
0.641977
-0.121611
0.016471
0.041711
2.646628
0.095430
0.657715
-0.205776
-0.019554
0.291433
-0.059085
0.158589
0.385476
0.026074
0.623788
0.108109
0.438625
-0.251584
-0.045335
0.639595
0.593062
0.244539
0.131844
0.409446
1.136578
0.402066
1.916219
0.088205
-0.141656
2.505005
-0.214156
2.564703
0.404206
0.118349
-0.259109
0.351812
0.363717
0.697972
0.346721
0.656257
1.765617
0.544085
0.098973
0.048160
0.775987
1.610148
0.241487
0.368090
0.125724
0.323360
0.321473
-0.182536
0.004974
0.573808
0.402616
0.810956
0.378354
-0.415720
1.289142
1.672281
0.380506
0.224735
0.156170
-0.003521
0.619321
2.012237
0.367845
0.266995
-0.173111
0.281533
0.127298
0.347944
-0.099584
1.513882
0.603157
-0.004819
0.545412
-0.000211
0.500864
0.517838
0.691216
0.080365
0.708745
-0.344655
0.739456
0.441087
-0.251075
0.163935
0.331620
0.061528
0.714819
0.093368
0.397651
-0.019614
0.317299
0.375090
0.247698
0.205664
0.642752
0.455163
0.736666
-0.214632
-0.045840
0.614184
0.208501
-0.066650
-0.118282
-0.031032
0.221357
2.819156
0.078680
-0.009448
-0.215768
-0.439915
0.162070
1.699203
0.493802
0.101922
0.193587
0.210896
0.202856
0.133810
0.510206
0.041102
0.438569
0.156711
0.431608
0.920442
0.414394
0.383741
0.201084
0.231286
0.466625
0.645179
0.278277
-0.212685
-0.400533
0.374253
0.127913
1.153388
0.137070
0.557973
0.580491
2.263816
0.497860
-0.211617
1.958557
0.439465
0.108873
0.533225
0.784854
-0.176068
-0.099261
0.393127
0.154023
0.284925
0.801931
-0.118538
0.451145
0.234511
0.601992
0.172423
-0.416775
1.815177
0.124287
0.353802
0.519594
-0.012659
-0.076006
0.193959
0.304933
0.443589
-0.153708
0.010621
-0.299249
0.634620
-0.038621
0.302239
0.213930
0.403790
0.142813
0.263478
0.441237
0.290594
0.009873
-0.163149
0.034833
-0.126321
-0.395768
0.597049
0.453359
-0.165525
-0.108076
0.661166
1.047503
0.258225
0.171520
0.163296
0.367427
0.332846
0.629596
-0.078932
0.037926
1.421753
0.234552
-0.095438
0.659518
0.378755
0.525273
0.163666
0.136634
-0.146166
0.629069
-0.022219
0.443024
-0.058274
-0.075794
0.532936
-0.097983
-0.059857
0.453054
-0.121513
0.229582
0.574961
1.591953
0.604996
0.080854
0.033580
0.047780
0.740858
0.705630
-0.305928
0.008503
-0.024759
-0.202480
0.560204
0.241824
0.618010
0.436462
0.043958
1.740550
-0.151167
0.260800
2.087380
-0.250502
-0.154992
0.092126
-0.191961
0.622860
0.331294
1.524729
1.431713
0.478509
0.795449
0.028228
1.941279
0.842017
0.564764
0.932218
0.182904
0.530507
0.873216
0.326305
0.790344
0.044699
0.372424
0.604202
0.523955
0.276037
0.233048
0.804533
0.577497
0.300155
0.203328
0.805354
0.454599
0.203851
0.166258
0.720447
0.987959
0.812673
0.299405
0.424909
0.505431
0.220056
0.707972
0.103224
0.062073
0.272736
0.035442
0.244977
0.803242
0.908659
0.571282
0.593586
0.953358
0.943706
0.197788
0.477312
0.219743
0.430836
0.281845
0.797240
0.730991
0.485173
0.602594
0.185589
0.689024
0.768852
0.906036
0.676982
0.581526
0.205441
0.101891
0.086956
0.425497
0.809863
0.190181
0.487570
0.082598
0.225623
0.732547
0.885841
0.134282
0.303829
0.479427
0.087639
0.247535
0.677214
0.564951
0.467278
0.108050
0.846796
0.264518
0.839041
0.331969
0.867112
0.024630
0.020993
0.635965
0.930666
0.697975
0.217490
0.136107
0.799866
0.304447
0.561603
0.609728
0.494627
0.049173
0.692326
0.720250
0.781720
0.578167
0.854532
0.085549
0.057594
0.942171
0.333084
0.734808
0.507122
0.800362
0.842858
0.353919
0.064880
0.681899
0.685888
0.931993
0.706530
0.706881
0.567957
0.637196
0.404856
0.785448
0.773303
0.204722
0.089895
0.334906
0.814450
0.584522
0.384080
0.506776
0.304772
0.165800
0.084943
0.159304
0.251348
0.142537
0.101475
0.584432
0.877345
0.608598
0.384795
0.720204
0.962517
0.449675
0.402103
0.648405
0.381668
0.108633
0.355285
0.949625
0.745829
0.760141
0.735073
0.519132
0.964863
0.824967
0.854038
0.779313
0.409490
0.238118
0.286089
0.714262
0.403917
0.371033
0.873566
0.655266
0.513570
0.975042
0.239698
0.390915
0.583640
0.624493
0.111119
0.546156
0.074168
0.513222
0.194561
0.455836
0.621855
0.549846
0.405461
0.367684
0.309987
0.140534
0.886816
0.274850
0.965502
0.740854
0.054163
0.374991
0.978972
0.340252
0.089253
0.382889
0.711285
0.962820
0.038155
0.224854
0.937861
0.277854
0.615769
0.521501
0.902347
0.726888
0.067657
0.976515
0.240110
0.262218
0.432352
0.861965
0.812064
0.837813
0.229649
0.122052
0.978347
0.116464
0.396902
0.943849
0.857318
0.451065
0.318840
0.836290
0.791317
0.408093
0.219179
0.502602
0.370913
0.257334
0.727456
0.308774
0.535188
0.343226
0.830275
0.437534
0.070114
0.897932
0.414050
0.310224
0.160150
0.846401
0.172189
0.972215
0.684214
0.401837
0.094266
0.662561
0.518301
0.491168
0.606410
0.375620
0.942233
0.925251
0.211909
0.733551
0.333344
0.431088
0.236152
0.704257
0.688422
0.963609
0.013031
0.223610
0.306834
0.843306
0.661144
0.376948
0.741239
0.075194
0.687172
0.901389
0.921595
0.859360
0.873604
0.605809
0.261198
0.967871
0.268370
0.779499
0.459039
0.874781
0.155119
0.401273
0.800031
0.367028
0.134823
0.133375
0.798116
0.370976
0.837632
0.486538
0.334584
0.850663
0.710148
0.641419
0.693970
0.371292
0.018367
0.435209
0.446486
0.705539
0.336598
0.368081
0.564899
0.210202
0.973890
0.826097
0.178073
0.242261
0.605596
0.637112
0.117041
0.760714
0.038384
0.917072
0.127742
0.173207
0.050447
0.925858
0.544183
0.888080
0.412397
0.878767
0.738743
0.122545
0.520186
0.432712
0.493837
0.538553
0.867921
0.940324
0.244092
0.204519
0.308405
0.808991
0.414721
0.282295
0.635088
0.592793
0.524556
0.240683
0.229905
0.641597
0.001397
0.268289
0.558669
0.129139
0.441496
0.609117
0.054998
0.985679
0.497196
0.467394
0.864447
0.235939
0.589939
0.384633
0.668651
0.083777
0.923186
0.536572
0.024101
0.167278
0.741091
0.332506
0.976269
0.155812
0.614801
0.611356
0.748606
0.139357
0.852039
0.978511
0.780954
0.853437
0.246800
0.339623
0.982576
0.688296
0.948740
0.037574
0.673976
0.445936
0.504968
0.538422
0.681875
0.094908
0.923055
0.350527
0.178685
0.846241
0.887099
0.202785
0.013519
0.628190
0.535291
0.989788
0.784003
0.150092
0.601144
0.532608
0.289449
0.453184
0.511119
0.070403
0.306621
0.757918
0.410026
0.289197
0.446215
0.358766
0.326771
0.120190
0.804702
0.831739
0.658612
0.486577
0.926647
0.581668
0.837104
0.105332
0.427909
0.724203
0.308117
0.441428
0.352394
0.843408
0.431216
0.136396
0.993500
0.032360
0.669004
0.282949
0.485544
0.180123
0.353351
0.792164
0.938041
0.763377
0.081361
0.384256
0.122143
0.408132
0.504446
0.926844
0.239871
0.163059
0.413422
0.166518
0.744726
0.250525
0.271850
0.172635
0.974728
0.579967
0.614064
0.327122
0.423375
0.045280
0.463518
0.416875
0.077640
0.132522
0.699824
0.563184
0.312645
0.053175
0.355348
0.250687
0.816552
0.436710
0.634943
0.938695
0.844842
0.139389
0.865539
0.084713
0.302448
0.278961
0.251231
0.047174
0.529486
0.523081
0.219810
0.504214
0.103048
0.833873
0.831336
0.526423
0.879153
0.294854
0.943298
0.956793
0.427377
0.643121
0.519976
0.740022
0.696296
0.875325
0.990709
0.512848
0.312034
0.625652
0.451543
0.156876
0.765041
0.317082
0.241589
0.067489
0.596042
0.492820
0.114663
0.125528
0.015901
0.334473
0.629742
0.118948
0.168346
0.461079
0.645371
0.047499
0.755933
0.588669
0.004291
0.183310
0.231790
0.524268
0.923332
0.928086
0.399592
0.914041
0.440934
0.711627
0.539694
0.892477
0.868503
0.304735
0.209559
0.110091
0.372224
0.805601
0.602911
0.486887
0.931130
0.618812
0.821360
0.560872
0.737760
0.989706
0.021951
0.383131
0.037205
0.777884
0.971799
0.041497
0.961194
0.203589
0.565764
0.884526
0.131675
0.965357
0.798567
0.572610
0.676984
0.338261
0.465087
0.545486
0.642996
0.674646
0.655577
0.015220
0.480247
0.258488
0.502107
0.411376
0.877300
0.323467
0.972249
0.615060
0.313174
0.994199
0.998191
0.350379
0.772083
0.969990
0.391876
0.733277
0.173579
0.957640
0.617802
0.305254
0.922997
0.416369
0.877864
0.599981
0.754630
0.342951
0.145467
0.397625
0.017596
0.801044
0.412845
0.497843
0.059532
0.914952
0.909220
0.936832
0.238420
0.881468
0.551892
0.551594
0.875668
0.550082
0.901973
0.647751
0.520072
0.293849
0.381027
0.693651
0.251489
0.998830
0.998906
0.174486
0.415199
0.876770
0.774466
0.169829
0.219720
0.919933
0.567454
0.237317
0.720977
0.980300
0.735160
0.780509
0.895252
0.644380
0.717341
0.133672
0.525848
0.269233
0.685265
0.401516
0.819316
0.587238
0.049266
0.339388
0.881087
0.430293
0.033039
0.132576
0.429123
0.031945
0.307061
0.844322
0.908715
0.081528
0.014151
0.128435
0.001461
0.581605
0.365752
0.722438
0.561905
0.100912
0.502947
0.457157
0.745292
0.220288
0.590828
0.271140
0.489522
0.276094
0.672655
0.308837
0.863332
0.721922
0.648225
0.744419
0.152215
0.681264
0.876994
0.581338
0.713210
0.184055
0.425660
0.621925
0.265583
0.439811
0.750360
0.267044
0.021416
0.116112
0.989482
0.583321
0.217025
0.492429
0.040478
0.962317
0.712717
0.631307
0.233456
0.202239
0.907401
0.906112
0.511076
0.770732
0.628034
0.159301
0.515151
0.780249
0.840565
0.392145
0.361586
0.553775
0.576201
0.787246
0.175700
0.841784
0.227057
0.926060
0.108828
0.248474
0.042173
0.098310
0.831795
0.259197
0.590739
0.872274
0.221514
0.303456
0.503581
0.454970
0.505694
0.410981
0.361082
0.016770
0.181714
0.989116
0.176071
0.696865
0.769364
0.016637
0.089010
0.130951
0.570412
0.665210
0.918197
0.746112
0.506994
0.145255
0.672172
0.615822
0.393728
0.714344
0.714132
0.225524
0.973542
0.304870
0.097797
0.195055
0.608326
0.601378
0.650026
0.114020
0.012359
0.011108
0.130791
0.194073
0.000223
0.306862
0.890937
0.769587
0.323499
0.979947
0.900538
0.893911
0.645157
0.818735
0.640022
0.152152
0.963990
0.312194
0.767974
0.357718
0.026539
0.482106
0.583242
0.000080
0.786976
0.681039
0.195136
0.395302
0.282417
0.845161
0.509322
0.294776
0.856269
0.640113
0.488849
0.856492
0.946975
0.379786
0.626079
0.270474
0.359733
0.526617
0.164385
0.004891
0.345352
0.804407
0.157042
0.309342
0.116601
0.925016
0.667060
0.143140
0.407122
0.250302
0.143221
0.194097
0.931341
0.338356
0.589399
0.213759
0.183518
0.098722
0.508535
0.039786
0.738835
0.997384
0.896278
0.685810
0.377170
0.522358
0.956284
0.736904
0.048975
0.120669
0.741794
0.394328
0.925076
0.898837
0.703670
0.041678
0.823853
0.370730
0.184818
0.230974
0.621032
0.328038
0.425072
0.552373
0.666395
0.014471
0.766132
0.849912
0.113193
0.274667
0.889699
0.852028
0.272051
0.785977
0.537838
0.649221
0.308335
0.494122
0.386125
0.357310
0.614792
0.127919
0.751638
0.539868
0.026756
0.455307
0.581546
0.850609
0.826037
0.766364
0.081583
0.447069
0.094402
0.506655
0.999442
0.760797
0.521125
0.765574
0.610709
0.634318
0.040240
0.500408
0.486346
0.312291
0.286385
0.024184
0.961512
0.594720
0.518306
0.347637
0.952030
0.133098
0.475556
0.703667
0.672966
0.502312
0.158975
0.254512
0.352921
0.985012
0.020876
0.434504
0.432081
0.115278
0.941158
0.431523
0.876075
0.462284
0.197096
0.486784
0.096602
0.237336
0.987192
0.582948
0.549627
0.273577
0.607131
0.511140
0.868297
0.125437
0.858777
0.820326
0.258535
0.334333
0.523994
0.931501
0.836645
0.682968
0.186013
0.189566
0.667980
0.206888
0.624070
0.100061
0.322166
0.565228
0.531583
0.198241
0.027512
0.728679
0.685025
0.124113
0.966016
0.672217
0.707061
0.515643
0.945794
0.314192
0.026783
0.814090
0.439629
0.885559
0.634416
0.698164
0.219892
0.158410
0.629665
0.056537
0.841378
0.815678
0.246103
0.509358
0.022566
0.870172
0.609419
0.344732
0.435400
0.141002
0.542973
0.462912
0.869681
0.227998
0.587025
0.835697
0.900215
0.294086
0.351340
0.846009
0.608278
0.378122
0.660099
0.047907
0.263682
0.294515
0.746072
0.483573
0.452926
0.375737
0.540110
0.294304
0.191415
0.786213
0.803662
0.213982
0.656385
0.413081
0.558714
0.091785
0.554083
0.101687
0.554696
0.423765
0.329685
0.141721
0.259462
0.229900
0.435807
0.610801
0.075909
0.044085
0.988924
0.736008
0.091992
0.252606
0.030524
0.838064
0.736179
0.483449
0.213801
0.276289
0.777753
0.405217
0.062502
0.581415
0.619198
0.718886
0.994496
0.177912
0.810671
0.548580
0.279599
0.365368
0.972344
0.609284
0.507089
0.231806
0.839185
0.942896
0.842607
0.915094
0.986981
0.831531
0.651102
0.078974
0.084137
0.681626
0.917038
0.820316
0.165075
0.130839
0.096605
0.942828
0.536055
0.159106
0.524244
0.155253
0.877993
0.518740
0.333165
0.688664
0.067320
0.612764
0.054032
0.039664
0.222049
0.561121
0.271470
0.061234
0.504017
0.114078
0.976328
0.490998
0.945609
0.627430
0.569972
0.029746
0.309056
0.487009
0.850061
0.474132
0.617848
0.946666
0.416960
0.153904
0.105772
0.941204
0.309157
0.983765
0.459944
0.642323
0.672429
0.527264
0.255087
0.726461
0.566928
0.477136
0.287582
0.838399
0.538370
0.791599
0.952476
0.514697
0.282597
0.898085
0.142127
0.852569
0.927831
0.451184
0.339578
0.777892
0.925315
0.957426
0.724559
0.342275
0.111330
0.830331
0.283479
0.420488
0.814096
0.743423
0.062810
0.486525
0.270687
0.317897
0.212986
0.837615
0.795033
0.500568
0.676014
0.333403
0.292167
0.628490
0.848100
0.574764
0.526576
0.990228
0.427332
0.454406
0.441411
0.766910
0.232299
0.366727
0.724337
0.956857
0.709002
0.835667
0.787188
0.992481
0.256155
0.601284
0.735904
0.318965
0.087810
0.006591
0.636862
0.300796
0.844207
0.431896
0.801364
0.520221
0.765298
0.093531
0.148711
0.613399
0.668294
0.675287
0.603627
0.095627
0.129693
0.045038
0.862537
0.361992
0.411765
0.586874
0.318849
0.120767
0.422541
0.106038
0.113248
0.678695
0.707322
0.849153
0.997660
0.795132
0.855744
0.634522
0.095928
0.699951
0.066418
0.897292
0.220172
0.831716
0.990822
0.368883
0.445115
0.659117
0.044169
0.048741
0.754743
0.173862
0.093779
0.617280
0.535854
0.505544
0.204154
0.854704
0.626311
0.626694
0.960741
0.739560
0.305390
0.668063
0.588712
0.303049
0.463195
0.444456
0.937572
0.559123
0.144407
0.003989
0.456414
0.364578
0.835705
0.447237
0.733461
0.280820
0.106354
0.777630
0.329562
0.861097
0.951493
0.423341
0.478377
0.487347
0.928886
0.682531
0.342051
0.555197
0.309226
0.302792
0.294756
0.614615
0.970855
0.883469
0.917665
0.434051
0.327925
0.855236
0.993173
0.472332
0.859225
0.449588
0.836910
0.694931
0.896824
0.570371
0.975751
0.003178
0.348002
0.305313
0.864275
0.299494
0.728655
0.342652
0.786841
0.657540
0.025183
0.128892
0.212737
0.334409
0.431684
0.507493
0.949024
0.402540
0.390962
0.866688
0.836590
0.718887
0.721925
0.829763
0.191218
0.581150
0.279351
0.028129
0.276081
0.176175
0.598500
0.251832
0.179354
0.946501
0.557146
0.043629
0.245996
0.285800
0.386281
0.032837
0.943340
0.411464
0.161729
0.156077
0.745873
0.593413
0.663571
0.694897
0.995953
0.054533
0.561585
0.832543
0.773420
0.283510
0.662306
0.964638
0.864660
0.941657
0.992767
0.140741
0.117833
0.591266
0.392574
0.297186
0.537768
0.949719
0.340815
0.783763
0.235520
0.727095
0.816600
0.178860
0.138560
0.978330
0.334937
0.884433
0.571743
0.998508
0.579330
0.567696
0.053041
0.140915
0.400239
0.826460
0.424425
0.062545
0.791098
0.289086
0.004202
0.783865
0.429827
0.122035
0.375131
0.822401
0.419221
0.912899
0.772120
0.760035
0.696662
0.007640
0.487131
0.513263
0.186500
0.625690
0.491592
0.521437
0.510123
0.063335
0.519945
0.089453
0.631031
0.572985
0.230368
0.031269
0.399446
0.654794
0.093814
0.190544
0.943879
0.098016
0.974408
0.373706
0.220051
0.349539
0.196107
0.639271
0.262438
0.968228
0.399307
0.959101
0.975868
0.886438
0.472363
0.162368
0.512128
0.963956
0.683805
0.022251
0.027291
0.203750
0.111704
0.658322
0.776735
0.342072
0.689591
0.176181
0.996866
0.783406
0.366724
0.940745
0.881422
0.341133
0.314451
0.101472
0.690672
0.510559
0.740744
0.953110
0.478786
0.140051
0.912211
0.454654
0.026488
0.384574
0.617021
0.538616
0.348530
0.300826
0.560867
0.375821
0.504576
0.672571
0.034143
0.281311
0.014644
0.723734
0.457491
0.011510
0.507140
0.824216
0.952255
0.388562
0.165348
0.266706
0.490034
0.856020
0.777265
0.230778
0.809130
0.256051
0.370829
0.721341
0.710705
0.397317
0.105916
0.327726
0.935933
0.454446
0.628552
0.496800
0.830267
0.133128
0.169372
0.864410
0.414439
0.184015
0.588145
0.871931
0.195525
0.095285
0.696146
0.147780
0.483847
0.861494
0.414486
0.973881
0.717514
0.191751
0.204659
0.526645
0.447802
0.575488
0.247986
0.158507
0.972805
0.353902
0.486233
0.908738
0.808348
0.114786
0.405538
0.638615
0.247914
0.574910
0.503025
0.662353
0.758925
0.091170
0.534283
0.954450
0.186455
0.230430
0.102230
0.670302
0.091924
0.516717
0.644183
0.809439
0.708468
0.848842
0.336083
0.156270
0.424330
0.584070
0.314777
0.397135
0.937972
0.801010
0.305873
0.746320
0.915795
0.711411
0.384935
0.163709
0.286320
0.887960
0.826062
0.045245
0.979130
0.360346
0.999696
0.165585
0.590775
0.101926
0.835887
0.682699
0.618643
0.480070
0.492138
0.327110
0.328912
0.828221
0.483380
0.753242
0.412291
0.798157
0.150377
0.350263
0.599167
0.456250
0.096583
0.514962
0.167660
0.481518
0.678672
0.453981
0.369478
0.504734
0.499226
0.348608
0.865080
0.498922
0.514194
0.455855
0.600848
0.350081
0.138554
0.219491
0.830150
0.630692
0.546601
0.159062
0.458913
0.029981
0.912304
0.871205
0.828139
0.062681
0.221467
0.427305
0.518931
0.318050
0.942268
0.686591
0.799568
0.620940
0.140572
0.169045
0.125673
0.639798
0.517654
0.990753
0.138720
0.031847
0.446608
0.739568
0.381928
0.585162
0.959058
0.212078
0.215854
0.505660
0.371140
0.674768
0.535641
0.283445
0.545972
0.363780
0.346126
0.767440
0.791085
0.865057
0.085490
0.733353
0.551648
0.885057
0.354292
0.692220
0.054103
0.479966
0.332018
0.571756
0.470719
0.470738
0.603603
0.917327
0.210306
0.985531
0.502489
0.169365
0.197609
0.718343
0.675024
0.568749
0.393111
0.210665
0.852194
0.939083
0.574445
0.198320
0.706523
0.365530
0.063377
0.792012
0.098883
0.615025
0.677069
0.453176
0.307245
0.731172
0.933141
0.639264
0.302928
0.403860
0.110002
0.906531
0.321187
0.320308
0.892062
0.823676
0.489673
0.089671
0.542019
0.164697
0.658420
0.935130
0.375362
0.510614
0.874213
0.949807
0.708934
0.580735
0.315337
0.772311
0.372748
0.414221
0.387336
0.049817
0.867396
0.694581
0.780989
0.800538
0.333844
0.083917
0.204398
0.443846
0.990448
0.525585
0.764155
0.882510
0.349261
0.253827
0.972181
0.891280
0.418524
0.630601
0.826409
0.793887
0.141215
0.700622
0.743694
0.850149
0.281357
0.059031
0.622459
0.654105
0.473252
0.009795
0.703922
0.340648
0.704375
0.484910
0.141186
0.038220
0.568827
0.345583
0.482066
0.559275
0.871168
0.246221
0.441785
0.220429
0.500048
0.413966
0.111709
0.918573
0.044567
0.938118
0.712459
0.185782
0.638740
0.456153
0.035930
0.920097
0.515185
0.658390
0.574201
0.988437
0.668184
0.278123
0.329085
0.372560
0.763033
0.470270
0.410780
0.331861
0.815854
0.892846
0.891136
0.687022
0.139067
0.332921
0.907451
0.639115
0.746888
0.019160
0.557688
0.791455
0.957278
0.270147
0.977236
0.596017
0.726301
0.013167
0.516114
0.241485
0.671557
0.090315
0.229922
0.339741
0.368438
0.559007
0.712301
0.131471
0.029277
0.123080
0.463332
0.845131
0.015927
0.354467
0.532154
0.154994
0.687389
0.439605
0.794109
0.434276
0.458765
0.351797
0.225731
0.416042
0.621945
0.202968
0.012060
0.348245
0.216134
0.528173
0.589731
0.887691
0.618489
0.819653
0.227432
0.986926
0.378660
0.939733
0.118397
0.407937
0.062813
0.581729
0.253068
0.078740
0.936196
0.785222
0.233734
0.623585
0.224827
0.027843
0.057861
0.683591
0.379640
0.283592
0.099633
0.001585
0.486560
0.111693
0.349830
0.702694
0.639866
0.939561
0.590385
0.258355
0.759214
0.817817
0.245281
0.137873
0.757550
0.363679
0.545810
0.820363
0.945407
0.798878
0.899103
0.881604
0.584100
0.132837
0.505189
0.808926
0.160680
0.563050
0.492518
0.540320
0.846643
0.592151
0.541905
0.333202
0.703844
0.891735
0.035897
0.343711
0.831296
0.626282
0.602065
0.590510
0.444100
0.847347
0.728383
0.201650
0.211025
0.274193
0.022013
0.156433
0.073071
0.921116
0.038036
0.657171
0.053953
0.543225
0.466098
0.214632
0.106275
0.958615
0.754952
0.952918
0.550766
0.296857
0.286120
0.254611
0.188593
0.322017
0.598321
0.019889
0.948299
0.200387
0.610399
0.392399
0.047733
0.338782
0.594049
0.258759
0.612974
0.616062
0.415191
0.686046
0.537178
0.453228
0.343217
0.591131
0.996452
0.809315
0.805763
0.102727
0.767930
0.560716
0.055645
0.318696
0.857573
0.341765
0.573307
0.046165
0.663782
0.171628
0.066054
0.612081
0.372015
0.676453
0.004480
0.419748
0.015234
0.598529
0.678507
0.628209
0.214592
0.093698
0.314254
0.751770
0.546926
0.657471
0.342901
0.543378
0.466786
0.148664
0.646106
0.234716
0.709380
0.701751
0.553412
0.566953
0.043516
0.126719
0.613118
0.707297
0.298347
0.679172
0.319379
0.670362
0.355624
0.323859
0.090110
0.370858
0.922388
0.768617
0.999067
0.136980
0.862315
0.313321
0.888750
0.409241
0.970792
0.231651
0.952619
0.437578
0.380315
0.598724
0.672293
0.089695
0.300475
0.225705
0.656648
0.343990
0.352424
0.269765
0.051288
0.650771
0.948937
0.370666
0.321133
0.304561
0.694525
0.411243
0.675420
0.616914
0.179860
0.674486
0.753893
0.042174
0.987808
0.642643
0.451415
0.958600
0.874294
0.404034
0.396178
0.254609
0.002758
0.068471
0.344305
0.303233
0.294177
0.000952
0.647224
0.646601
0.270718
0.698511
0.297372
0.219655
0.069178
0.618505
0.524216
0.763703
0.029747
0.199635
0.380617
0.209607
0.874122
0.134510
0.251781
0.861930
0.777153
0.703197
0.820529
0.651448
0.107230
0.216707
0.906057
0.109989
0.285179
0.250362
0.413222
0.579355
0.251314
0.060445
0.225956
0.522031
0.758957
0.523328
0.741686
0.828134
0.141832
0.265902
0.591838
0.171580
0.465537
0.972454
0.381187
0.339659
0.106964
0.632968
0.201589
0.884118
0.336165
0.022118
0.535565
0.443395
0.238825
0.441622
0.553384
0.524004
0.691984
0.966605
0.103359
0.943298
0.027051
0.329315
0.465329
0.786007
0.852643
0.207015
0.614142
0.994475
0.472916
0.205979
0.166055
0.938453
0.178434
0.547242
0.278112
0.285398
0.180210
0.479701
0.169516
0.516374
0.501819
0.705081
0.959769
0.740645
0.146703
0.513153
0.264649
0.838687
0.479759
0.368008
0.781985
0.506809
0.697323
0.247313
0.292817
0.549966
0.454328
0.906958
0.544441
0.927244
0.112938
0.710495
0.865697
0.291371
0.257737
0.143810
0.576769
0.437947
0.623511
0.746285
0.954321
0.125331
0.451366
0.914090
0.865975
0.598069
0.427243
0.130624
0.436756
0.907002
0.498632
0.218741
0.413811
0.195955
0.466054
0.706628
0.745921
0.920382
0.613586
0.290361
0.847626
0.726524
0.000857
0.713324
0.017896
0.258594
0.857133
0.594665
0.696540
0.480645
0.340950
0.650861
0.605975
0.792316
0.564952
0.471950
0.390386
0.992195
0.602575
0.827142
0.899197
0.101207
0.045883
0.313008
0.297162
0.511937
0.019636
0.043083
0.432319
0.633223
0.333445
0.279946
0.359747
0.334301
0.993269
0.377643
0.592895
0.850403
0.972308
0.289435
0.331047
0.313258
0.940296
0.937022
0.105575
0.505248
0.408973
0.495960
0.497443
0.011548
0.323102
0.396640
0.112755
0.368985
0.709648
0.409917
0.880922
0.729285
0.453000
0.313242
0.362508
0.786445
0.593188
0.722255
0.120746
0.586457
0.099898
0.713641
0.436859
0.072206
0.003076
0.767907
0.385464
0.943372
0.704929
0.491039
0.448620
0.113902
0.986999
0.946063
0.125449
0.310101
0.342703
0.238204
0.679087
0.052352
0.648121
0.560009
0.781637
0.101121
0.873251
0.144144
0.887565
0.466439
0.866399
0.008311
0.052895
0.966297
0.721952
0.489755
0.038502
0.725028
0.257662
0.423967
0.668401
0.962591
0.915005
0.117021
0.076493
0.902004
0.063085
0.201942
0.212106
0.405788
0.440146
0.891192
0.458140
0.088267
0.451202
0.239777
0.189388
0.324453
0.383921
0.076954
0.790891
0.250320
0.085265
0.843786
0.216617
0.807217
0.333541
0.255119
0.532245
0.591203
0.679085
0.200646
0.553794
0.594091
0.317667
0.630286
0.496095
0.380752
0.832228
0.708201
0.786540
0.272374
0.599394
0.244680
0.360642
0.050595
0.484456
0.550030
0.375048
0.868377
0.626983
0.165939
0.118697
0.712248
0.009725
0.335314
0.519465
0.343267
0.590433
0.051710
0.934469
0.269518
0.252356
0.488263
0.863609
0.570023
0.118549
0.359704
0.950775
0.950777
0.067905
0.737314
0.223152
0.667299
0.981994
0.583794
0.717894
0.466450
0.133823
0.092942
0.334827
0.760807
0.258881
0.453524
0.473055
0.268606
0.788838
0.992520
0.611873
0.379270
0.044230
0.546342
0.648788
0.296586
0.034605
0.512397
0.866609
0.153154
0.872102
0.817384
0.103932
0.940007
0.554698
0.327084
0.607306
0.536692
0.910878
0.325200
0.003141
0.044701
0.418142
0.337968
0.805508
0.677023
0.791492
0.278563
0.945629
0.580330
0.271082
0.557501
0.959600
0.315313
0.103844
0.608389
0.611899
0.138449
0.120786
0.478508
0.291603
0.992888
0.295892
0.395535
0.932895
0.850590
0.722619
0.540200
0.387281
0.633497
0.865400
0.390423
0.678198
0.283542
0.728391
0.483706
0.960565
0.519883
0.762268
0.906193
0.100214
0.033351
0.463695
0.059814
0.348663
0.567538
0.668203
0.960562
0.705987
0.788989
0.439070
0.997591
0.781877
0.734961
0.393126
0.714771
0.585551
0.115746
0.254972
0.972832
0.749243
0.120372
0.363255
0.427441
0.403914
0.091646
0.911146
0.364479
0.611529
0.673415
0.270672
0.711743
0.706765
0.734367
0.771557
0.055428
0.301905
0.439760
0.015990
0.007893
0.228749
0.455060
0.005483
0.010625
0.190021
0.398610
0.725397
0.775572
0.514355
0.980368
0.748404
0.263598
0.100740
0.111658
0.691039
0.504654
0.203304
0.602185
0.869133
0.814833
0.275599
0.139805
0.526576
0.982365
0.874172
0.298133
0.037793
0.176077
0.737893
0.053783
0.183969
0.966641
0.508843
0.189453
0.977267
0.698864
0.588062
0.702663
0.474435
0.102418
0.683032
0.222839
0.366015
0.783772
0.334498
0.057054
0.288426
0.537802
0.659239
0.157559
0.352635
0.934838
0.297364
0.879212
0.917203
0.171536
0.177345
0.954996
0.347613
0.915238
0.008779
0.531582
0.881879
0.517621
0.721035
0.859146
0.216485
0.309097
0.561809
0.690920
0.411515
0.244841
0.913760
0.777530
0.028613
0.248258
0.834584
0.317039
0.786060
0.493823
0.474598
0.138695
0.428662
0.771963
0.017907
0.345865
0.943499
0.195252
0.300860
0.291112
0.110489
0.309639
0.822694
0.992368
0.827260
0.543729
0.851514
0.043745
0.852826
0.413323
0.734666
0.264341
0.658163
0.648426
0.041872
0.686776
0.896683
0.876456
0.003815
0.682743
0.370280
0.478413
0.821438
0.798941
0.250376
0.839344
0.144806
0.193874
0.034596
0.445666
0.484986
0.145085
0.755305
0.307680
0.137453
0.582566
0.851409
0.988967
0.626311
0.704235
0.402290
0.360977
0.968577
0.060453
0.009402
0.010448
0.747229
0.906085
0.886905
0.751044
0.588828
0.257184
0.229457
0.410266
0.056126
0.479832
0.249610
0.200931
0.673706
0.284206
0.646598
0.158692
0.429292
0.401903
0.466372
0.566745
0.984468
0.317781
0.555712
0.610779
0.022016
0.958001
0.971756
0.990593
0.018454
0.981158
0.001041
0.765683
0.887244
0.887946
0.516727
0.476072
0.145130
0.746183
0.886338
0.201256
0.226016
0.135948
0.402187
0.899722
0.420155
0.048785
0.058414
0.849446
0.450688
0.524787
0.416191
0.435156
0.842568
0.971903
0.045935
0.864584
0.929904
0.017691
0.855177
0.948358
0.998850
0.856219
0.714042
0.886094
0.744164
0.230768
0.362166
0.889294
0.976952
0.248504
0.090550
0.202967
0.384452
0.492737
0.102689
0.804607
0.541521
0.161104
0.654053
0.992209
0.685890
0.070244
0.427365
0.528458
0.042147
0.473301
0.393042
0.972051
0.490992
0.248220
0.920410
0.489842
0.104438
0.634451
0.375935
0.848602
0.865219
0.738101
0.737897
0.842171
0.986604
0.828447
0.045138
0.371056
0.321183
0.147828
0.175663
0.862705
0.308931
0.829716
0.854914
0.994822
0.899960
0.282279
0.523280
0.942107
0.755580
0.916322
0.914158
0.246572
0.164542
0.834568
0.736413
0.268980
0.469019
0.112349
0.117582
0.334238
0.850450
0.855479
0.176410
0.837054
0.683926
0.221548
0.208111
0.005109
0.369376
0.383774
0.867814
0.678307
0.213489
0.722728
0.673129
0.113450
0.005007
0.196409
0.055557
0.760587
0.112731
0.969715
0.007159
0.277273
0.804283
0.743572
0.546253
0.273302
0.855921
0.663835
0.607541
0.706371
0.519314
0.783950
0.543425
0.203240
0.005498
0.751535
0.208349
0.374874
0.135309
0.076163
0.053181
0.348798
0.798891
0.726310
0.462248
0.803899
0.922718
0.517805
0.564486
0.035449
0.487520
0.571644
0.312722
0.291803
0.315216
0.858975
0.565105
0.171137
0.522810
0.172646
0.877508
0.042124
0.956596
0.420933
0.245364
0.962094
0.172468
0.453713
0.336967
0.307777
0.529876
0.390148
0.656576
0.328768
0.116458
0.118824
0.132666
0.039176
0.636628
0.697152
0.074625
0.124148
0.268796
0.387348
0.415951
0.584013
0.246323
0.981057
0.755150
0.769133
0.153702
0.632658
0.811258
0.110298
0.053591
0.056622
0.072392
0.226059
0.510336
0.409360
0.533836
0.040212
0.799508
0.190412
0.368980
0.915966
0.309236
0.501646
0.955142
0.945864
0.198798
0.029767
0.070012
0.467595
0.417115
0.485964
0.051608
0.663438
0.467021
0.806758
0.432571
0.620723
0.439416
0.243829
0.731021
0.493007
0.300452
0.803413
0.719067
0.810787
0.212773
0.252903
0.850999
0.012281
0.443315
0.219979
0.928246
0.752551
0.721625
0.883388
0.698414
0.920424
0.913155
0.768427
0.388019
0.330270
0.254391
0.439626
0.993708
0.721411
0.246384
0.426279
0.342134
0.685800
0.670108
0.073155
0.178808
0.970560
0.876569
0.897874
0.781347
0.089342
0.150777
0.632346
0.101623
0.594092
0.852325
0.029869
0.346643
0.573951
0.913257
0.045057
0.494375
0.826412
0.813484
0.882393
0.156682
0.067875
0.322019
0.150390
0.789286
0.568404
0.576669
0.131420
0.254204
0.246777
0.204576
0.433012
0.217337
0.081145
0.330886
0.998684
0.170487
0.481663
0.631031
0.272110
0.075755
0.483356
0.301979
0.422398
0.057307
0.215236
0.467455
0.551681
0.041648
0.280940
0.434074
0.198330
0.348814
0.756094
0.348720
0.138100
0.324497
0.925389
0.269521
0.578701
0.172166
0.474096
0.011713
0.389503
0.555241
0.342598
0.388188
0.725727
0.824261
0.019218
0.997837
0.900017
0.502575
0.299816
0.322415
0.559882
0.515052
0.789870
0.111563
0.556700
0.070810
0.545637
0.755031
0.419624
0.301731
0.103751
0.557724
0.626229
0.029140
0.827245
0.204930
0.201306
0.301341
0.216642
0.590809
0.856582
0.559241
0.978997
0.582310
0.383502
0.998216
0.580147
0.283519
0.500790
0.879963
0.605934
0.060672
0.395015
0.395804
0.172235
0.951715
0.466613
0.717872
0.706746
0.886238
0.019603
0.810497
0.443962
0.645832
0.839636
0.271207
0.850762
0.040942
0.572548
0.067404
0.631752
0.429131
0.626645
0.610749
0.011440
0.010147
0.608964
0.591587
0.293666
0.109755
0.471550
0.899600
0.170426
0.866565
0.295404
0.342661
0.818280
0.762017
0.060533
0.525025
0.648255
0.080136
0.335522
0.092217
0.725968
0.175158
0.363424
0.576729
0.216101
0.935972
0.644134
0.847852
0.365103
0.270779
0.458601
0.376543
0.280926
0.067565
0.968130
0.574592
0.177320
0.439680
0.474192
0.347746
0.306245
0.769596
0.690407
0.124524
0.531614
0.750940
0.649550
0.179869
0.831076
0.985072
0.272086
0.557044
0.160230
0.635510
0.133773
0.376331
0.571482
0.777907
0.224183
0.936585
0.048685
0.682784
0.313128
0.329611
0.750349
0.281259
0.904204
0.927669
0.720939
0.378396
0.275415
0.027184
0.147992
0.965822
0.151708
0.679606
0.716762
0.801258
0.859475
0.547838
0.786330
0.131561
0.104882
0.946560
0.767071
0.238655
0.322891
0.338552
0.016562
0.383201
0.080813
-0.011173
0.213487
0.491511
0.142883
0.943040
0.703524
0.298937
0.772497
0.410085
0.456399
0.110018
0.477454
0.730647
0.080569
0.776213
0.412405
0.610619
0.296370
0.364532
0.136462
0.254408
0.370192
0.457302
0.155274
0.009981
0.551902
0.543009
0.260656
0.621797
0.003145
0.796585
0.759271
0.263352
0.217917
0.153872
0.097877
0.300132
0.457538
0.110576
0.884977
0.124131
0.470583
0.468189
-0.053846
0.520927
0.190670
0.294169
0.369411
0.628868
0.754394
0.903409
0.095398
0.312046
0.218944
0.258888
0.500194
0.103833
0.068434
0.168386
0.795449
0.126990
0.063733
0.792135
0.669181
0.425720
-0.242804
0.129889
0.802349
0.310237
0.171304
0.747007
0.585360
0.559214
0.204011
0.696079
0.152654
0.609157
0.292537
-0.062689
0.393396
0.135726
0.824992
0.863845
0.597246
0.266948
0.299738
0.318121
0.359830
0.558156
0.401585
0.467256
0.667206
0.648648
0.259391
0.509471
0.295980
0.180645
0.745074
0.079022
0.638433
0.092833
0.055861
0.462744
-0.240220
0.558489
0.263242
0.468390
0.063275
0.577402
0.383738
0.797657
-0.243294
0.536979
0.568215
0.514222
0.621219
-0.025787
0.958569
0.350445
0.504861
0.461743
0.853101
0.439634
0.212820
-0.072761
0.140426
0.560055
0.317289
-0.214392
0.917126
0.083492
0.139883
-0.195270
0.696277
0.248973
0.263501
-0.018935
0.638832
0.782034
-0.121928
0.466665
0.735203
-0.061261
-0.052848
0.243703
0.482680
0.815378
0.598778
0.645974
0.239166
0.080234
0.035397
0.057716
0.711410
0.327173
0.157942
0.085394
0.146468
0.453311
0.198621
-0.064627
0.909539
0.110979
0.097267
0.628724
0.643381
0.691053
-0.194604
0.399010
0.618290
-0.010936
-0.008008
0.423004
0.093412
0.104035
-0.088273
0.752076
-0.093392
0.596167
0.585455
0.234497
-0.028145
0.551906
0.484704
0.901563
0.209916
0.807616
-0.140745
0.629745
0.408057
0.209989
0.813485
0.430812
0.478661
0.063774
0.231478
-0.049446
0.715169
0.265352
0.754679
0.680257
0.482732
0.596108
0.046508
0.725043
-0.076953
0.144001
0.628135
0.110645
0.792364
0.157213
0.543583
-0.126040
0.083585
0.059411
0.878802
0.473888
0.018796
-0.041999
0.235451
0.458684
0.136343
0.186082
0.181865
0.691305
0.307779
0.607935
0.748033
0.342337
-0.200440
0.583488
-0.042752
0.634866
0.512834
0.042806
0.270026
0.505802
0.258616
-0.090548
0.445807
0.207249
0.072247
0.226037
0.488954
0.444115
0.453833
0.189258
0.062880
0.588081
0.441049
0.506644
0.280092
0.460727
0.833234
0.578871
0.359989
0.164687
0.440481
0.410466
0.506550
0.582160
0.049123
0.378932
0.162392
0.411311
0.758050
0.664780
0.185468
0.291651
0.804241
-0.037567
0.631889
0.068289
0.366212
0.120773
0.436097
0.652885
0.658005
0.724069
0.487612
0.216721
0.049586
-0.083148
0.878929
0.181341
0.848492
0.076594
0.353677
0.154549
0.647139
-0.072092
-0.139098
0.724895
0.610941
0.464407
0.468919
0.550227
0.012851
0.767314
0.851899
0.104415
0.747804
0.553823
0.174960
0.129939
0.148605
0.025344
0.067364
0.848206
0.757515
0.616634
-0.024629
0.255848
0.777082
-0.208646
0.427455
0.546743
0.292874
-0.177374
0.006462
-0.077507
-0.014926
-0.020871
0.686482
0.735447
0.435442
0.508633
0.462131
0.579428
0.317812
0.312081
-0.034882
0.383144
0.234888
0.173961
0.522590
0.297771
0.179115
0.657531
0.157039
0.184236
0.501650
0.486291
0.402598
0.294014
0.559147
0.024288
0.791971
-0.207236
-0.074060
0.750878
0.033981
0.150298
-0.044361
-0.143216
-0.061189
0.455579
0.523809
0.489533
0.376342
-0.001635
0.698889
0.276192
0.418799
0.186909
0.659565
-0.166639
0.388621
0.103874
0.901636
-0.069327
0.530581
0.224116
0.600781
0.146478
0.744671
0.226885
0.116555
0.570910
0.276452
0.266674
0.622645
0.400959
0.463918
0.710985
0.493491
0.508658
0.165631
0.066408
-0.109639
0.827578
-0.004519
-0.011839
0.307389
0.391700
0.016574
-0.093489
0.724560
0.883581
0.342923
0.626196
-0.117599
-0.210598
-0.151426
0.800117
0.037063
0.868485
0.003100
0.419435
0.509858
0.259842
0.691377
0.420639
-0.075903
0.307203
0.098247
0.519775
0.984242
0.673010
0.672193
0.026005
0.534855
0.794902
-0.081378
0.815326
0.559582
0.329803
-0.084996
0.245307
0.370840
0.390700
0.781267
0.410029
0.490054
-0.167421
0.188592
0.608181
-0.226587
0.096346
0.208245
0.664526
0.916078
0.035018
0.202323
0.962208
0.272220
0.260803
0.455896
0.528817
0.206557
0.096516
0.323416
0.768178
0.209780
0.600993
0.627912
0.834634
0.058455
-0.135258
0.245859
0.417382
0.360657
0.087294
-0.007005
-0.125454
0.264957
0.370691
0.829556
0.294817
0.730422
-0.039650
-0.009961
0.667256
0.223370
0.039685
0.644896
0.769473
0.687703
0.461350
0.209078
0.187769
0.625150
-0.139750
0.156839
0.001109
0.796737
0.027649
0.747994
-0.000575
0.080870
-0.037142
0.493250
0.673056
0.456068
0.790543
0.777742
0.776231
0.234722
0.744927
0.189152
-0.049634
-0.131905
0.052239
-0.172570
0.386489
0.644274
0.715559
0.010843
0.421023
0.290036
0.549012
0.413614
0.030404
0.604713
-0.254337
-0.199207
0.446020
-0.033926
1.017032
0.469916
0.137291
0.204812
0.195531
-0.237846
-0.149257
-0.045140
-0.107377
0.708399
0.045877
0.411460
1.094421
0.016094
0.639773
0.308866
0.429678
-0.196004
-0.132698
0.249526
0.210364
-0.038675
0.613013
0.022872
0.312399
-0.067756
-0.183225
0.134143
0.100776
0.331595
0.288700
0.401093
0.067198
-0.136835
-0.075888
0.668540
-0.225372
0.063429
0.546735
-0.076180
-0.242698
-0.026427
0.419144
-0.222748
1.609516
0.418358
0.620650
0.050198
0.602795
1.022679
0.676311
0.145384
0.391898
0.556146
0.480957
-0.158146
0.789361
0.705607
0.131435
-0.148515
0.513753
-0.122440
0.302279
0.478688
-0.005271
0.568358
0.247025
0.069980
-0.047913
0.151711
0.395679
-0.001520
0.641582
0.293858
0.404361
0.282352
0.180692
0.048549
0.357267
0.200155
0.168486
0.026798
1.837630
0.491410
0.776521
0.172516
0.494190
0.159964
0.215377
0.140676
0.063409
0.735711
-0.026316
-0.164556
0.721989
0.317719
-0.097768
0.168420
1.144624
0.186055
-0.132311
0.114746
0.465109
0.507952
-0.103215
-0.315778
0.221789
0.116395
0.148562
0.500688
0.459625
0.605225
0.364857
0.298111
0.203905
1.505436
-0.058624
0.068779
0.586086
0.379255
-0.082081
0.083694
0.219572
1.953313
0.032098
-0.056585
0.037063
0.253746
0.666830
-0.174887
-0.323492
0.648902
0.459960
0.547387
0.422777
0.743624
0.656720
-0.129410
-0.265584
0.011594
-0.195650
0.874587
-0.035413
0.276821
0.056182
0.145350
0.043165
0.290421
0.387895
-0.104415
-0.101270
-0.134957
-0.000858
0.659475
0.605270
0.431559
-0.281724
-0.075663
0.185764
1.856321
0.176682
0.207987
0.547808
0.067133
0.181186
0.604306
-0.161283
-0.141221
0.484429
0.137743
0.477750
0.423318
-0.091549
0.726404
-0.000167
0.679686
-0.223921
0.261932
0.409016
-0.382979
0.394162
0.350454
0.111610
0.662049
1.076036
-0.065988
0.564326
0.120810
0.110732
-0.167337
-0.054970
0.358302
0.512125
0.233468
1.129823
0.731886
0.500010
-0.110976
0.116665
0.346628
0.394103
1.632543
0.205662
0.464928
0.526058
0.496711
0.237895
-0.191780
-0.059394
0.025003
-0.195502
0.470891
0.701641
0.183568
0.380256
0.085251
0.213672
0.237922
0.385638
0.799699
0.996913
0.599868
0.730630
-0.106984
-0.086651
0.732783
0.217743
0.651919
-0.311330
0.399675
0.355113
0.339654
0.280063
0.550276
0.165646
-0.212375
0.273194
0.927050
0.221501
0.555009
-0.143360
0.391961
0.194794
0.294018
0.725889
-0.021304
0.076681
0.274318
0.203219
0.786198
0.264173
0.166600
0.838185
-0.048207
0.527818
0.610732
-0.220006
-0.174334
0.372420
-0.103985
0.502373
0.243407
0.692881
-0.033900
0.244003
0.099038
0.076088
0.815528
0.094279
0.329788
0.112732
0.491047
0.339246
-0.102004
0.068553
-0.129414
-0.140795
0.372356
0.722809
0.856806
0.073294
0.176676
-0.097282
0.098682
0.268785
0.608695
-0.124934
0.432392
0.638096
-0.068063
0.742620
0.448595
0.333768
1.384571
-0.202990
0.629392
-0.159815
0.413427
0.562771
0.698747
0.141341
0.070471
0.475875
0.534583
0.062639
0.470512
0.294116
1.597222
-0.363401
-0.187442
0.201878
0.223954
0.176272
0.858476
0.339304
-0.214546
0.644397
0.416582
0.640651
0.720295
0.627013
1.864518
0.407529
0.154274
0.452277
0.637577
0.343593
-0.226129
0.298587
-0.367831
0.547273
-0.276848
0.182063
0.127344
-0.334623
0.774221
0.018407
0.047181
0.478660
0.190429
0.215436
-0.263902
0.375431
0.467791
0.545212
0.380902
-0.113260
0.412683
0.002782
-0.133439
0.382036
0.263487
0.773023
0.168943
0.766841
0.489174
0.066860
0.150037
0.671804
0.555210
-0.087177
0.410899
-0.270343
1.815839
-0.066707
-0.109191
0.220065
0.351341
0.250790
0.003794
0.692609
0.500546
-0.100228
0.406596
0.510800
-0.173411
0.252359
0.656811
0.706556
0.645320
0.710194
0.111257
-0.047204
0.569486
0.723276
-0.421792
0.460289
0.382328
-0.079906
0.147307
-0.478906
0.493249
0.077199
-0.025152
0.850351
0.438416
-0.110460
-0.321407
0.264733
0.248766
0.096358
0.105565
-0.081789
0.421756
-0.498858
0.396934
0.849477
0.280743
0.487345
0.513167
0.179870
0.777343
0.170589
0.362126
-0.067195
-0.123752
0.283000
0.382801
0.047183
0.470752
0.076643
0.123164
0.169730
0.557157
0.120125
0.412595
0.177089
0.380488
0.272175
0.472008
-0.195321
-0.495197
0.565068
0.264638
0.566696
-0.157091
0.149131
0.671505
0.369502
0.539758
0.196164
0.531726
1.322919
0.623225
0.075744
0.287253
-0.200462
0.689209
0.151040
-0.124914
0.407762
0.631905
0.450821
0.796111
0.218631
-0.210674
0.210361
0.676147
0.488221
-0.067242
0.391008
0.615220
0.157418
0.255204
-0.115819
-0.157645
0.159266
0.322287
0.418481
-0.150650
0.206172
0.067797
1.181145
0.651711
0.096644
0.078543
0.366478
0.129475
-0.097889
0.063126
0.339635
0.541365
0.707095
0.146356
0.335539
0.285790
0.281088
0.053093
0.727577
0.134306
0.212434
1.204746
0.119501
0.553269
0.106943
0.404865
0.451018
0.690027
0.913131
1.346421
-0.147964
0.316287
0.617592
0.074011
0.671470
-0.304065
0.371470
0.295106
0.131193
0.308199
0.441120
-0.132633
1.371124
0.430257
0.198261
0.019481
0.025510
0.555869
0.394443
0.385491
0.084270
-0.135065
0.149491
0.046667
1.773418
0.361623
-0.125559
0.433563
0.689097
-0.066358
-0.158497
0.682551
-0.080861
0.208747
-0.213121
-0.145893
0.842142
0.447177
0.338403
0.049416
0.123115
-0.151678
0.105267
0.777524
0.544266
0.740702
0.115212
-0.024412
0.445879
0.798230
0.284414
-0.213282
0.648637
-0.185135
-0.082752
0.347585
1.796336
0.151131
0.315680
0.496437
0.465213
0.691911
0.555575
-0.283422
0.308552
0.609276
-0.116615
0.288251
0.357424
0.629663
0.493106
0.441888
0.954536
0.055798
0.269112
0.396539
0.050503
-0.273709
0.471924
-0.202995
-0.155179
0.114289
-0.014398
-0.217451
0.445451
0.381885
0.758764
0.273043
0.001492
0.097982
-0.205804
-0.116627
0.887150
0.342991
1.092041
0.126728
1.145844
-0.170645
0.575905
0.097351
0.796272
0.584063
0.591198
0.757389
0.595309
0.330067
0.661519
-0.004882
0.554787
0.332849
0.549049
0.731344
-0.005304
0.109093
-0.205532
0.438828
-0.020841
0.367983
0.143356
0.019568
-0.118244
-0.140816
0.046016
0.057084
0.039547
0.138913
0.291081
1.549449
0.439017
0.237672
0.567485
0.457791
-0.469802
0.592883
0.319786
1.187216
0.035909
-0.016842
-0.051635
-0.089888
-0.128999
0.140839
-0.121837
-0.019919
-0.229966
0.078400
-0.315169
0.136071
-0.128505
0.054211
0.030037
-0.040437
0.346468
0.756598
0.364414
0.493628
-0.221004
-0.367645
0.303986
0.510876
0.043792
0.137805
0.197721
0.133219
-0.249450
0.058679
0.107349
0.186778
0.157224
0.337718
0.597348
1.499440
-0.094210
-0.178774
0.522106
0.106314
0.325439
0.840658
0.270345
0.217807
-0.095597
-0.135009
0.784747
0.385410
0.517711
0.433228
0.178733
0.011760
-0.030092
0.701652
-0.038456
0.466747
0.076102
0.201973
0.229512
0.095397
1.326760
0.553993
0.752892
-0.189518
0.144095
0.432815
0.277822
0.120772
0.725516
0.540557
1.931474
0.089530
0.043451
0.122303
0.833337
0.310043
0.354630
1.656212
0.131168
0.034715
0.256552
0.601117
0.139755
-0.267457
0.484731
0.479392
0.578548
0.696956
0.007550
0.075520
0.039669
0.641884
-0.274395
0.085901
0.631943
0.344994
0.445044
0.178965
0.038395
-0.445462
0.799535
0.842198
0.236909
0.081546
0.031364
0.135513
0.748155
0.642876
0.039570
-0.131175
0.038655
0.277626
0.696149
1.701919
0.635824
0.522089
0.085899
0.580334
0.387939
0.829185
-0.193786
-0.168747
0.168481
-0.133424
-0.096244
0.124303
0.401726
0.315268
0.755387
0.397111
0.338008
0.414119
0.334728
0.655022
-0.394565
-0.206558
0.067567
-0.130536
-0.106471
0.290801
0.188609
0.172695
-0.109211
0.183088
-0.057195
-0.441187
0.447372
0.568832
0.756644
0.425781
0.681505
0.368308
0.239547
0.077107
-0.187210
0.937685
0.116150
0.404210
0.132265
0.058740
-0.058363
-0.351567
0.638511
0.659978
0.507190
-0.071603
-0.132367
-0.117117
-0.043715
0.710232
0.555998
0.196515
0.239504
-0.012883
0.497454
-0.053408
-0.055945
0.339795
0.801504
-0.245305
-0.140253
0.409093
1.011950
1.774673
0.279931
0.620373
0.460208
-0.089858
0.211621
0.346354
-0.014450
0.493654
0.172013
-0.173727
0.576438
0.117005
0.033165
1.925317
0.238527
0.182943
-0.161261
0.227563
0.939385
0.559651
0.462263
0.162644
0.580898
-0.310458
-0.018138
0.486600
-0.148121
0.371128
0.316243
-0.048482
0.253018
0.131597
-0.072412
-0.231214
0.002787
0.215293
0.065777
0.654504
0.342442
0.460864
-0.313925
0.258050
0.826928
0.352932
0.225311
0.444832
0.884956
0.327924
-0.067264
0.863943
0.296335
0.584762
0.157204
0.069055
-0.274401
1.860019
-0.049296
0.073254
-0.138848
0.666589
0.337572
0.419239
-0.050975
0.299480
0.347906
0.290369
0.057236
-0.204712
0.409734
0.658949
0.723437
0.485988
0.103821
0.573030
-0.117091
0.415401
0.460938
-0.373564
0.144954
0.985866
0.682228
0.456503
0.154184
0.499764
0.044551
0.603880
0.901047
0.423180
-0.298983
0.370376
0.564745
0.147025
0.203586
0.661993
0.615404
-0.022882
-0.058658
-0.359436
0.373538
-0.121682
0.733113
0.054108
0.618114
0.416737
0.173303
0.730483
0.418114
0.616624
0.699585
-0.447224
0.391098
0.649471
0.555813
0.100169
0.354965
0.003679
-0.273839
0.648526
0.608374
-0.201998
0.199889
0.203305
0.120453
-0.460254
-0.147207
0.277605
0.157001
0.570834
0.405727
0.785871
0.695003
0.042121
-0.148529
0.295470
1.464676
0.281246
0.207845
-0.085680
0.197935
0.237896
-0.051919
-0.382603
0.135168
-0.091884
0.170138
0.708753
-0.058636
0.114679
0.358933
-0.169834
0.231088
0.009046
0.276324
-0.326140
0.268648
0.428245
-0.044213
0.543890
0.060232
0.650489
0.234381
0.075816
0.036737
0.539004
1.171355
0.624033
0.225872
0.200853
-0.034133
0.657101
0.573108
0.459556
0.609572
-0.060232
0.379737
0.135609
-0.353417
0.681165
0.595694
0.512710
1.276970
0.191779
-0.251661
0.639456
0.235614
0.200404
-0.285307
0.592584
-0.200312
0.198743
1.429053
1.510991
0.587218
-0.337225
0.253369
0.799402
-0.148252
0.346487
0.039105
-0.209903
0.353010
-0.467927
0.517629
0.328108
2.198216
0.263715
0.606162
0.140852
0.364507
0.304275
-0.132747
0.156338
-0.107631
-0.002051
0.170277
-0.139015
2.016765
0.161104
-0.061212
0.561470
-0.152349
-0.524975
0.174301
-0.371292
-0.223156
-0.043229
-0.404556
0.019314
0.411112
0.145510
0.515764
0.021097
0.317530
0.179667
-0.272741
-0.265817
-0.140188
-0.359297
0.311023
0.817853
0.352864
-0.140374
0.126157
-0.356393
-0.272520
-0.054005
-0.218297
-0.448171
1.554202
0.228924
0.727884
0.108876
0.390572
1.792843
0.370716
-0.300656
0.028238
0.515955
0.304567
-0.259638
0.726266
0.309779
-0.016087
0.326487
1.312380
0.183872
-0.580376
0.360580
0.524999
0.323427
-0.537695
0.142246
0.530155
-0.049346
0.493672
-0.126054
0.778482
-0.268857
-0.008283
-0.319501
-0.190207
-0.126668
0.095568
0.651843
1.497486
-0.647926
1.590671
0.569628
2.230867
0.025668
-0.293598
0.639967
-0.285749
0.529572
0.501132
0.170111
-0.193347
-0.416900
0.299686
-0.152476
0.497524
-0.170597
1.637221
0.431949
-0.274755
0.114937
-0.168475
-0.478841
0.631902
-0.299714
0.728896
0.488773
0.286735
0.012531
0.254041
0.055148
0.701123
0.370726
0.042610
2.757547
0.146613
0.204999
0.627934
0.415120
-0.492463
0.580803
0.058926
2.291963
-0.576436
-0.517398
0.067457
0.387987
0.150941
-0.118793
0.194668
0.448131
-0.302919
0.602373
0.280462
-0.268843
-0.038421
-0.285360
0.286651
-0.485849
0.366420
0.427133
0.259745
0.166553
-0.110538
-0.526450
